{"learner":{"attributes":{"best_iteration":"111","best_score":"0.9144126428464414"},"feature_names":[],"feature_types":[],"gradient_booster":{"model":{"gbtree_model_param":{"num_parallel_tree":"1","num_trees":"660"},"iteration_indptr":[0,5,10,15,20,25,30,35,40,45,50,55,60,65,70,75,80,85,90,95,100,105,110,115,120,125,130,135,140,145,150,155,160,165,170,175,180,185,190,195,200,205,210,215,220,225,230,235,240,245,250,255,260,265,270,275,280,285,290,295,300,305,310,315,320,325,330,335,340,345,350,355,360,365,370,375,380,385,390,395,400,405,410,415,420,425,430,435,440,445,450,455,460,465,470,475,480,485,490,495,500,505,510,515,520,525,530,535,540,545,550,555,560,565,570,575,580,585,590,595,600,605,610,615,620,625,630,635,640,645,650,655,660],"tree_info":[0,1,2,3,4,0,1,2,3,4,0,1,2,3,4,0,1,2,3,4,0,1,2,3,4,0,1,2,3,4,0,1,2,3,4,0,1,2,3,4,0,1,2,3,4,0,1,2,3,4,0,1,2,3,4,0,1,2,3,4,0,1,2,3,4,0,1,2,3,4,0,1,2,3,4,0,1,2,3,4,0,1,2,3,4,0,1,2,3,4,0,1,2,3,4,0,1,2,3,4,0,1,2,3,4,0,1,2,3,4,0,1,2,3,4,0,1,2,3,4,0,1,2,3,4,0,1,2,3,4,0,1,2,3,4,0,1,2,3,4,0,1,2,3,4,0,1,2,3,4,0,1,2,3,4,0,1,2,3,4,0,1,2,3,4,0,1,2,3,4,0,1,2,3,4,0,1,2,3,4,0,1,2,3,4,0,1,2,3,4,0,1,2,3,4,0,1,2,3,4,0,1,2,3,4,0,1,2,3,4,0,1,2,3,4,0,1,2,3,4,0,1,2,3,4,0,1,2,3,4,0,1,2,3,4,0,1,2,3,4,0,1,2,3,4,0,1,2,3,4,0,1,2,3,4,0,1,2,3,4,0,1,2,3,4,0,1,2,3,4,0,1,2,3,4,0,1,2,3,4,0,1,2,3,4,0,1,2,3,4,0,1,2,3,4,0,1,2,3,4,0,1,2,3,4,0,1,2,3,4,0,1,2,3,4,0,1,2,3,4,0,1,2,3,4,0,1,2,3,4,0,1,2,3,4,0,1,2,3,4,0,1,2,3,4,0,1,2,3,4,0,1,2,3,4,0,1,2,3,4,0,1,2,3,4,0,1,2,3,4,0,1,2,3,4,0,1,2,3,4,0,1,2,3,4,0,1,2,3,4,0,1,2,3,4,0,1,2,3,4,0,1,2,3,4,0,1,2,3,4,0,1,2,3,4,0,1,2,3,4,0,1,2,3,4,0,1,2,3,4,0,1,2,3,4,0,1,2,3,4,0,1,2,3,4,0,1,2,3,4,0,1,2,3,4,0,1,2,3,4,0,1,2,3,4,0,1,2,3,4,0,1,2,3,4,0,1,2,3,4,0,1,2,3,4,0,1,2,3,4,0,1,2,3,4,0,1,2,3,4,0,1,2,3,4,0,1,2,3,4,0,1,2,3,4,0,1,2,3,4,0,1,2,3,4,0,1,2,3,4,0,1,2,3,4,0,1,2,3,4,0,1,2,3,4,0,1,2,3,4,0,1,2,3,4,0,1,2,3,4,0,1,2,3,4,0,1,2,3,4,0,1,2,3,4,0,1,2,3,4,0,1,2,3,4,0,1,2,3,4,0,1,2,3,4,0,1,2,3,4,0,1,2,3,4,0,1,2,3,4,0,1,2,3,4,0,1,2,3,4,0,1,2,3,4,0,1,2,3,4,0,1,2,3,4,0,1,2,3,4,0,1,2,3,4,0,1,2,3,4,0,1,2,3,4,0,1,2,3,4],"trees":[{"base_weights":[-1.4658715E-1,6.633243E-1,-2.537176E-1,2.172437E-1,1.2227074E0,6.464051E-2,-3.457359E-1,-2.4822694E-1,6.2421185E-1,1.4060676E0,6.230032E-1,-3.8123164E-1,3.4261632E-1,-1.4908051E-1,-4.5946506E-1,4.5197736E-2,-4.6112114E-1,8.447488E-1,-3.726708E-2,1.8480724E0,8.843537E-1,1.3513513E-2,1.11111104E-1,-1.6638935E-2,-5.668733E-1,5.747126E-2,5.935127E-1,-2.287845E-1,4.511278E-1,-5.1758194E-1,-2.376286E-1,-5.8355432E-2,-1.7412936E-2,-2.3668637E-2,1.159844E-1,2.0607029E-1,1.11111104E-1,1.1821085E-1,1.3071895E-2,4.5197736E-2,-2.0044543E-2,-6.0846556E-2,-3.1100476E-2,3.184713E-2,-3.211009E-2,1.1064892E-1,2.233677E-2,-2.9076396E-2,2.3294508E-2,7.855361E-2,-5.190311E-3,-5.3525683E-2,1.9900497E-2,8.914101E-3,-3.726708E-2],"categories":[],"categories_nodes":[],"categories_segments":[],"categories_sizes":[],"default_left":[0,0,0,0,0,0,0,0,0,0,0,0,0,0,0,0,0,0,0,0,0,0,0,0,0,0,0,0,0,0,0,0,0,0,0,0,0,0,0,0,0,0,0,0,0,0,0,0,0,0,0,0,0,0,0],"id":0,"left_children":[1,3,5,7,9,11,13,15,17,19,21,23,25,27,29,-1,31,33,-1,35,37,-1,-1,39,41,43,45,47,49,51,53,-1,-1,-1,-1,-1,-1,-1,-1,-1,-1,-1,-1,-1,-1,-1,-1,-1,-1,-1,-1,-1,-1,-1,-1],"loss_changes":[7.699802E1,2.5615616E1,2.2953121E1,1.1316264E1,4.1602707E0,2.198897E1,1.3516281E1,4.412175E0,7.288439E0,6.2706223E0,2.831266E0,4.606591E0,7.7754E0,1.0821063E1,4.8323364E0,0E0,6.756239E-1,9.229563E0,0E0,4.7453308E-1,3.8038673E0,0E0,0E0,2.1612759E0,2.9136372E-1,5.260006E0,1.0758041E1,5.7466383E0,4.515364E0,3.953308E0,3.6358051E0,0E0,0E0,0E0,0E0,0E0,0E0,0E0,0E0,0E0,0E0,0E0,0E0,0E0,0E0,0E0,0E0,0E0,0E0,0E0,0E0,0E0,0E0,0E0,0E0],"parents":[2147483647,0,0,1,1,2,2,3,3,4,4,5,5,6,6,7,7,8,8,9,9,10,10,11,11,12,12,13,13,14,14,16,16,17,17,19,19,20,20,23,23,24,24,25,25,26,26,27,27,28,28,29,29,30,30],"right_children":[2,4,6,8,10,12,14,16,18,20,22,24,26,28,30,-1,32,34,-1,36,38,-1,-1,40,42,44,46,48,50,52,54,-1,-1,-1,-1,-1,-1,-1,-1,-1,-1,-1,-1,-1,-1,-1,-1,-1,-1,-1,-1,-1,-1,-1,-1],"split_conditions":[-1.190252E0,-5.648316E-1,-7.7161545E-1,-2.4860966E-1,3.7196165E-1,-1.0108444E-1,-9.235623E-2,-3.0491412E-1,1.0577013E0,-1.5226324E0,-5.384477E-1,-6.2381035E-1,-8.734168E-3,7.1769583E-1,1.0619097E0,4.5197736E-2,-7.8319675E-1,-1.6260695E0,-3.726708E-2,1.2752733E-1,7.987049E-1,1.3513513E-2,1.11111104E-1,-8.33387E-1,8.484406E-1,-5.3698313E-1,-1.549025E-1,1.0313635E0,-3.304409E-1,2.0259962E0,6.5492773E-1,-5.8355432E-2,-1.7412936E-2,-2.3668637E-2,1.159844E-1,2.0607029E-1,1.11111104E-1,1.1821085E-1,1.3071895E-2,4.5197736E-2,-2.0044543E-2,-6.0846556E-2,-3.1100476E-2,3.184713E-2,-3.211009E-2,1.1064892E-1,2.233677E-2,-2.9076396E-2,2.3294508E-2,7.855361E-2,-5.190311E-3,-5.3525683E-2,1.9900497E-2,8.914101E-3,-3.726708E-2],"split_indices":[0,16,18,18,12,16,0,19,24,0,3,2,5,5,5,0,16,16,0,24,14,0,0,0,17,4,0,2,0,16,0,0,0,0,0,0,0,0,0,0,0,0,0,0,0,0,0,0,0,0,0,0,0,0,0],"split_type":[0,0,0,0,0,0,0,0,0,0,0,0,0,0,0,0,0,0,0,0,0,0,0,0,0,0,0,0,0,0,0,0,0,0,0,0,0,0,0,0,0,0,0,0,0,0,0,0,0,0,0,0,0,0,0],"sum_hessian":[8.8448004E2,1.0272001E2,7.817601E2,5.7920006E1,4.4800003E1,1.7536002E2,6.064E2,2.7200003E1,3.0720001E1,3.3280003E1,1.152E1,6.7200005E1,1.0816001E2,2.2304001E2,3.8336002E2,6.0800004E0,2.112E1,2.5280003E1,5.4400005E0,1.6640001E1,1.6640001E1,6.4000006E0,5.1200004E0,2.304E1,4.4160004E1,5.1200005E1,5.6960003E1,1.9744002E2,2.5600002E1,3.0272003E2,8.064001E1,1.4080001E1,7.0400004E0,5.76E0,1.952E1,1.152E1,5.1200004E0,1.152E1,5.1200004E0,6.0800004E0,1.6960001E1,3.6800003E1,7.3600006E0,3.0400002E1,2.0800001E1,2.304E1,3.3920002E1,1.7440001E2,2.304E1,1.5040001E1,1.056E1,2.9568002E2,7.0400004E0,2.3680002E1,5.6960003E1],"tree_param":{"num_deleted":"0","num_feature":"27","num_nodes":"55","size_leaf_vector":"1"}},{"base_weights":[9.0772926E-4,8.073945E-1,-3.2360607E-1,-1.7211454E-1,1.9692785E0,-5.479879E-1,2.933029E-2,3.1438413E-1,-4.136148E-1,2.0856102E0,-1.1299434E-2,-3.238242E-1,-5.811863E-1,7.308137E-1,-4.8052675E-1,1.111111E0,-5.5079557E-2,5.5900622E-2,-4.805492E-1,2.188612E0,7.883817E-2,8.80829E-2,-5.2258635E-1,-5.969858E-1,-3.7890044E-1,1.1625216E0,-1.2935883E-1,-5.114792E-1,2.9411763E-2,4.037267E-2,1.4806867E-1,-3.8461536E-2,3.8781162E-2,-5.2857865E-2,-2.1459225E-3,1.15879826E-1,2.2684185E-1,-2.4590163E-2,-6.0659595E-2,-5.1657673E-2,-6.1089493E-2,1.3071895E-2,-5.045871E-2,1.546841E-1,-3.1830236E-2,5.990783E-2,-3.5150643E-2,-8.196722E-3,-5.488769E-2],"categories":[],"categories_nodes":[],"categories_segments":[],"categories_sizes":[],"default_left":[0,0,0,0,0,0,0,0,0,0,0,0,0,0,0,0,0,0,0,0,0,0,0,0,0,0,0,0,0,0,0,0,0,0,0,0,0,0,0,0,0,0,0,0,0,0,0,0,0],"id":1,"left_children":[1,3,5,7,9,11,13,15,17,19,-1,21,23,25,27,29,31,-1,33,35,-1,-1,37,39,41,43,45,47,-1,-1,-1,-1,-1,-1,-1,-1,-1,-1,-1,-1,-1,-1,-1,-1,-1,-1,-1,-1,-1],"loss_changes":[2.309169E2,2.8845425E2,4.9840836E1,1.637649E1,2.8305725E1,2.67453E0,8.814863E1,1.3731358E1,6.3126774E0,1.2945709E1,0E0,1.2882429E1,8.4062195E-1,3.866611E1,3.57341E0,3.2609444E0,4.9187555E0,0E0,1.9158154E0,5.6853027E0,0E0,0E0,9.0054417E-1,2.8755188E-2,1.7902496E0,3.985195E1,5.96492E0,2.1658897E0,0E0,0E0,0E0,0E0,0E0,0E0,0E0,0E0,0E0,0E0,0E0,0E0,0E0,0E0,0E0,0E0,0E0,0E0,0E0,0E0,0E0],"parents":[2147483647,0,0,1,1,2,2,3,3,4,4,5,5,6,6,7,7,8,8,9,9,11,11,12,12,13,13,14,14,15,15,16,16,18,18,19,19,22,22,23,23,24,24,25,25,26,26,27,27],"right_children":[2,4,6,8,10,12,14,16,18,20,-1,22,24,26,28,30,32,-1,34,36,-1,-1,38,40,42,44,46,48,-1,-1,-1,-1,-1,-1,-1,-1,-1,-1,-1,-1,-1,-1,-1,-1,-1,-1,-1,-1,-1],"split_conditions":[-5.757406E-1,-3.4380388E-1,3.8150847E-2,-1.1667438E0,1.3274313E0,-1.1296678E0,8.673572E-1,1.2590895E-2,-3.493299E-1,1.154419E0,-1.1299434E-2,1.6352035E-1,-2.1961151E-1,5.2738476E-1,2.106842E0,-1.3968618E-1,-5.036754E-1,5.5900622E-2,-5.3411263E-1,-1.3910776E0,7.883817E-2,8.80829E-2,-8.2485133E-1,-5.803034E-1,-9.643814E-1,5.1526713E-1,-1.3458612E0,1.767057E-1,2.9411763E-2,4.037267E-2,1.4806867E-1,-3.8461536E-2,3.8781162E-2,-5.2857865E-2,-2.1459225E-3,1.15879826E-1,2.2684185E-1,-2.4590163E-2,-6.0659595E-2,-5.1657673E-2,-6.1089493E-2,1.3071895E-2,-5.045871E-2,1.546841E-1,-3.1830236E-2,5.990783E-2,-3.5150643E-2,-8.196722E-3,-5.488769E-2],"split_indices":[16,2,2,16,18,17,9,18,17,17,0,16,2,16,13,25,21,0,2,24,0,0,18,7,8,18,4,16,0,0,0,0,0,0,0,0,0,0,0,0,0,0,0,0,0,0,0,0,0],"split_type":[0,0,0,0,0,0,0,0,0,0,0,0,0,0,0,0,0,0,0,0,0,0,0,0,0,0,0,0,0,0,0,0,0,0,0,0,0,0,0,0,0,0,0,0,0,0,0,0,0],"sum_hessian":[8.8032007E2,2.5216002E2,6.2816003E2,1.3728001E2,1.14880005E2,3.8368002E2,2.4448001E2,4.5440002E1,9.1840004E1,1.0880001E2,6.0800004E0,5.0880005E1,3.3280002E2,1.0272001E2,1.4176001E2,1.3760001E1,3.1680002E1,5.4400005E0,8.640001E1,1.0016E2,8.64E0,6.7200003E0,4.4160004E1,3.0688004E2,2.5920002E1,6.816E1,3.456E1,1.3664001E2,5.1200004E0,5.4400005E0,8.320001E0,1.8240002E1,1.3440001E1,7.808E1,8.320001E0,8.320001E0,9.1840004E1,1.1200001E1,3.2960003E1,5.0880005E1,2.5600003E2,5.1200004E0,2.0800001E1,5.4080006E1,1.4080001E1,7.6800003E0,2.6880001E1,1.1200001E1,1.2544001E2],"tree_param":{"num_deleted":"0","num_feature":"27","num_nodes":"49","size_leaf_vector":"1"}},{"base_weights":[5.3165235E-2,5.2631575E-1,-4.742727E-1,6.7084074E-1,1.661276E-1,-2.3565947E-1,-5.560515E-1,3.767492E-2,7.4722624E-1,3.8004747E-1,-1.7789553E-1,-4.7371158E-1,3.1510106E-1,-4.1493773E-3,-5.704918E-1,-3.674833E-1,3.9603958E-1,7.6775424E-2,7.945597E-1,-8E-2,5.6478405E-1,8.103727E-3,-3.292181E-1,-5.558876E-1,7.326007E-3,5.546995E-1,-4.3778803E-2,-5.3057766E-1,-6.134358E-2,-1.6064256E-2,-5.5555552E-2,6.94051E-2,-2.5423726E-2,4.0983606E-2,-3.5269707E-2,9.044075E-2,4.578858E-2,-4.734411E-2,7.142857E-2,6.947697E-2,-1.6064256E-2,4.077253E-2,-2.200489E-2,-9.21659E-3,-4.096834E-2,-5.8252424E-2,-1.9607842E-2,9.1224015E-2,-1.4522821E-2,-6.1101545E-2,-3.3412885E-2],"categories":[],"categories_nodes":[],"categories_segments":[],"categories_sizes":[],"default_left":[0,0,0,0,0,0,0,0,0,0,0,0,0,0,0,0,0,0,0,0,0,0,0,0,0,0,0,0,0,0,0,0,0,0,0,0,0,0,0,0,0,0,0,0,0,0,0,0,0,0,0],"id":2,"left_children":[1,3,5,7,9,11,13,15,17,19,21,23,25,-1,27,29,31,33,35,37,39,41,43,45,-1,47,-1,49,-1,-1,-1,-1,-1,-1,-1,-1,-1,-1,-1,-1,-1,-1,-1,-1,-1,-1,-1,-1,-1,-1,-1],"loss_changes":[2.2274515E2,2.4377869E1,8.10601E0,1.619336E1,1.0079254E1,1.4503158E1,2.306778E0,5.5409613E0,9.435303E0,7.2011375E0,1.4898967E0,3.494526E0,6.311197E0,0E0,1.9731903E-1,6.0941577E-1,4.09101E0,3.12551E0,9.918915E0,8.150788E0,5.788172E0,2.3399115E0,5.184529E-1,5.271492E-1,0E0,6.6290407E0,0E0,2.4107437E0,0E0,0E0,0E0,0E0,0E0,0E0,0E0,0E0,0E0,0E0,0E0,0E0,0E0,0E0,0E0,0E0,0E0,0E0,0E0,0E0,0E0,0E0,0E0],"parents":[2147483647,0,0,1,1,2,2,3,3,4,4,5,5,6,6,7,7,8,8,9,9,10,10,11,11,12,12,14,14,15,15,16,16,17,17,18,18,19,19,20,20,21,21,22,22,23,23,25,25,27,27],"right_children":[2,4,6,8,10,12,14,16,18,20,22,24,26,-1,28,30,32,34,36,38,40,42,44,46,-1,48,-1,50,-1,-1,-1,-1,-1,-1,-1,-1,-1,-1,-1,-1,-1,-1,-1,-1,-1,-1,-1,-1,-1,-1,-1],"split_conditions":[-3.0954987E-1,2.9108936E-1,2.0744455E-1,-1.019112E0,-1.7827167E-1,3.3350813E-1,-1.502753E0,-9.235623E-2,-1.2778479E0,-8.407717E-1,5.2360827E-1,8.504219E-1,2.787726E-1,-4.1493773E-3,1.0748376E0,-4.2166078E-1,-6.9779046E-2,5.128838E-1,5.802319E-1,8.532174E-1,1.2102487E0,1.12993695E-1,-4.3210557E-1,1.3105622E-1,7.326007E-3,-1.4453153E-2,-4.3778803E-2,2.679806E-1,-6.134358E-2,-1.6064256E-2,-5.5555552E-2,6.94051E-2,-2.5423726E-2,4.0983606E-2,-3.5269707E-2,9.044075E-2,4.578858E-2,-4.734411E-2,7.142857E-2,6.947697E-2,-1.6064256E-2,4.077253E-2,-2.200489E-2,-9.21659E-3,-4.096834E-2,-5.8252424E-2,-1.9607842E-2,9.1224015E-2,-1.4522821E-2,-6.1101545E-2,-3.3412885E-2],"split_indices":[2,11,2,4,20,16,11,0,16,16,11,24,11,0,2,11,19,7,20,4,18,20,14,16,0,19,0,16,0,0,0,0,0,0,0,0,0,0,0,0,0,0,0,0,0,0,0,0,0,0,0],"split_type":[0,0,0,0,0,0,0,0,0,0,0,0,0,0,0,0,0,0,0,0,0,0,0,0,0,0,0,0,0,0,0,0,0,0,0,0,0,0,0,0,0,0,0,0,0,0,0,0,0,0,0],"sum_hessian":[8.9056006E2,4.6944003E2,4.2112003E2,3.3440002E2,1.3504001E2,1.0848001E2,3.1264E2,3.6160004E1,2.9824002E2,8.3200005E1,5.1840004E1,7.5840004E1,3.2640003E1,8.64E0,3.0400003E2,1.6960001E1,1.92E1,1.9840002E1,2.7840002E2,2.4000002E1,5.9200005E1,2.3680002E1,2.8160002E1,6.5920006E1,9.920001E0,2.4960001E1,7.6800003E0,1.6448001E2,1.3952E2,8.960001E0,8.000001E0,1.3120001E1,6.0800004E0,1.1200001E1,8.64E0,2.0864001E2,6.976E1,1.6320002E1,7.6800003E0,5.024E1,8.960001E0,8.320001E0,1.5360001E1,7.6800003E0,2.0480001E1,6.0800003E1,5.1200004E0,1.6320002E1,8.64E0,1.15200005E2,4.9280003E1],"tree_param":{"num_deleted":"0","num_feature":"27","num_nodes":"51","size_leaf_vector":"1"}},{"base_weights":[7.584938E-2,3.0987602E-1,-2.2293642E-1,1.1077111E0,2.535644E-1,7.961783E-1,-3.108063E-1,1.3761467E0,5.218855E-1,1.7826909E-1,6.953447E-1,7.4626864E-3,1.001642E0,-3.4071255E-1,3.689567E-1,6.8464726E-2,1.7781154E0,-3.2679737E-3,9.467455E-2,2.4350053E-1,-1.0945007E-1,8.0906147E-1,-3.954802E-2,6.470588E-1,1.6028707E-1,-2.4441457E-1,-5.4644805E-1,-1.9138755E-2,8.851674E-2,1.1581921E-1,2.1468925E-1,1.2518409E-2,4.040404E-2,3.31384E-2,-2.7075812E-2,9.6918084E-2,1.6320474E-2,1.111111E-2,1.11111104E-1,-8.631796E-3,-5.3409632E-2,-1.1299434E-2,-5.707674E-2],"categories":[],"categories_nodes":[],"categories_segments":[],"categories_sizes":[],"default_left":[0,0,0,0,0,0,0,0,0,0,0,0,0,0,0,0,0,0,0,0,0,0,0,0,0,0,0,0,0,0,0,0,0,0,0,0,0,0,0,0,0,0,0],"id":3,"left_children":[1,3,5,7,9,11,13,15,17,19,21,-1,23,25,27,-1,29,-1,-1,31,33,35,-1,37,-1,39,41,-1,-1,-1,-1,-1,-1,-1,-1,-1,-1,-1,-1,-1,-1,-1,-1],"loss_changes":[6.238801E1,2.219181E1,3.5354446E1,4.4209557E0,1.5460884E1,4.580385E0,7.477543E0,4.8421707E0,2.8300176E0,7.564768E0,8.740147E0,0E0,4.1560497E0,6.7395897E0,4.71651E0,0E0,5.2204514E-1,0E0,0E0,6.1742992E0,5.417292E0,6.2328224E0,0E0,4.1045737E0,0E0,1.0859247E1,1.0929451E0,0E0,0E0,0E0,0E0,0E0,0E0,0E0,0E0,0E0,0E0,0E0,0E0,0E0,0E0,0E0,0E0],"parents":[2147483647,0,0,1,1,2,2,3,3,4,4,5,5,6,6,7,7,8,8,9,9,10,10,12,12,13,13,14,14,16,16,19,19,20,20,21,21,23,23,25,25,26,26],"right_children":[2,4,6,8,10,12,14,16,18,20,22,-1,24,26,28,-1,30,-1,-1,32,34,36,-1,38,-1,40,42,-1,-1,-1,-1,-1,-1,-1,-1,-1,-1,-1,-1,-1,-1,-1,-1],"split_conditions":[-2.0630947E-1,-1.3371027E0,-1.6089427E0,6.0100156E-1,7.319326E-1,-7.859326E-1,1.3991854E0,-4.6131477E-1,1.24735124E-1,9.460839E-1,8.641777E-1,7.4626864E-3,7.718509E-1,4.828385E-1,-9.3598455E-1,6.8464726E-2,-7.3780984E-1,-3.2679737E-3,9.467455E-2,6.4545214E-2,-3.022438E-2,6.630632E-1,-3.954802E-2,-3.8402414E-1,1.6028707E-1,8.1300914E-1,-9.007922E-1,-1.9138755E-2,8.851674E-2,1.1581921E-1,2.1468925E-1,1.2518409E-2,4.040404E-2,3.31384E-2,-2.7075812E-2,9.6918084E-2,1.6320474E-2,1.111111E-2,1.11111104E-1,-8.631796E-3,-5.3409632E-2,-1.1299434E-2,-5.707674E-2],"split_indices":[22,24,4,5,20,12,17,26,10,4,10,0,14,8,6,0,9,0,0,10,18,4,0,26,0,6,18,0,0,0,0,0,0,0,0,0,0,0,0,0,0,0,0],"split_type":[0,0,0,0,0,0,0,0,0,0,0,0,0,0,0,0,0,0,0,0,0,0,0,0,0,0,0,0,0,0,0,0,0,0,0,0,0,0,0,0,0,0,0],"sum_hessian":[8.9024005E2,4.9920004E2,3.9104004E2,3.1680002E1,4.6752002E2,3.0400002E1,3.6064E2,2.0800001E1,1.0880001E1,4.0064E2,6.6880005E1,7.0400004E0,2.3360003E1,3.4592E2,1.4720001E1,8.64E0,1.2160001E1,5.1200004E0,5.76E0,3.2672003E2,7.3920006E1,6.0800003E1,6.0800004E0,1.6000002E1,7.3600006E0,2.3712001E2,1.0880001E2,7.3600006E0,7.3600006E0,6.0800004E0,6.0800004E0,1.8912001E2,1.376E2,1.952E1,5.4400005E1,4.8320004E1,1.24800005E1,8.000001E0,8.000001E0,1.5424E2,8.2880005E1,6.0800004E0,1.0272001E2],"tree_param":{"num_deleted":"0","num_feature":"27","num_nodes":"43","size_leaf_vector":"1"}},{"base_weights":[7.989043E-3,-2.4340494E-1,1.3117065E0,-4.2924696E-1,3.0546623E-1,1.632653E-1,1.8976545E0,-4.8659298E-1,-1.04911774E-1,-4.2766824E-2,7.696152E-1,-2.0811099E-1,1.2619808E0,1.3513513E-2,2.0251715E0,-2.9143897E-1,-5.450687E-1,-2.6632845E-1,3.6697245E-1,6.676342E-1,-2.839506E-1,3.008204E-1,1.3024757E0,-3.8461536E-1,6.508876E-2,6.508876E-2,1.6863905E-1,1.2068965E0,2.1658483E0,-4.013015E-2,2.6881719E-2,-3.7117902E-2,-5.687476E-2,-3.875094E-2,3.4798533E-2,7.547169E-2,-0E0,-6.024096E-3,1.0215054E-1,-4.2071197E-2,1.48514835E-2,6.23946E-2,-7.5614364E-3,6.575964E-2,1.7933723E-1,-5.1724136E-2,4.784689E-3,1.7231637E-1,6.666666E-2,1.651376E-1,2.3381567E-1],"categories":[],"categories_nodes":[],"categories_segments":[],"categories_sizes":[],"default_left":[0,0,0,0,0,0,0,0,0,0,0,0,0,0,0,0,0,0,0,0,0,0,0,0,0,0,0,0,0,0,0,0,0,0,0,0,0,0,0,0,0,0,0,0,0,0,0,0,0,0,0],"id":4,"left_children":[1,3,5,7,9,11,13,15,17,19,21,23,25,-1,27,29,31,33,35,37,39,41,43,45,-1,-1,-1,47,49,-1,-1,-1,-1,-1,-1,-1,-1,-1,-1,-1,-1,-1,-1,-1,-1,-1,-1,-1,-1,-1,-1],"loss_changes":[2.87491E2,7.514438E1,9.511124E1,1.0174858E1,3.0193443E1,2.0256443E1,2.0807953E1,5.1695404E0,6.4868746E0,1.8618605E1,1.9602356E1,5.9329476E0,2.1494598E0,0E0,7.446869E0,6.8661947E0,1.2634583E0,4.8307195E0,3.1019557E0,7.1602764E0,4.8531914E0,5.3845553E0,1.0584396E1,1.8440728E0,0E0,0E0,0E0,3.0570831E0,2.6385193E0,0E0,0E0,0E0,0E0,0E0,0E0,0E0,0E0,0E0,0E0,0E0,0E0,0E0,0E0,0E0,0E0,0E0,0E0,0E0,0E0,0E0,0E0],"parents":[2147483647,0,0,1,1,2,2,3,3,4,4,5,5,6,6,7,7,8,8,9,9,10,10,11,11,12,12,14,14,15,15,16,16,17,17,18,18,19,19,20,20,21,21,22,22,23,23,27,27,28,28],"right_children":[2,4,6,8,10,12,14,16,18,20,22,24,26,-1,28,30,32,34,36,38,40,42,44,46,-1,-1,-1,48,50,-1,-1,-1,-1,-1,-1,-1,-1,-1,-1,-1,-1,-1,-1,-1,-1,-1,-1,-1,-1,-1,-1],"split_conditions":[8.986968E-1,5.907978E-1,-2.1506123E-1,8.035116E-1,3.071558E-1,2.3952477E0,-9.094668E-1,-3.643719E-1,1.2752733E-1,-2.1137764E-1,7.856997E-1,4.2586368E-1,-6.956631E-1,1.3513513E-2,-5.8595516E-2,2.210345E-1,-5.5997217E-1,5.61603E-1,-6.1326844E-1,-6.1411107E-1,1.1714759E0,1.5753839E0,-5.863347E-1,-4.8063177E-1,6.508876E-2,6.508876E-2,1.6863905E-1,-1.4485981E0,2.5650162E-1,-4.013015E-2,2.6881719E-2,-3.7117902E-2,-5.687476E-2,-3.875094E-2,3.4798533E-2,7.547169E-2,-0E0,-6.024096E-3,1.0215054E-1,-4.2071197E-2,1.48514835E-2,6.23946E-2,-7.5614364E-3,6.575964E-2,1.7933723E-1,-5.1724136E-2,4.784689E-3,1.7231637E-1,6.666666E-2,1.651376E-1,2.3381567E-1],"split_indices":[9,4,24,0,0,9,0,6,24,6,18,18,24,0,18,11,14,1,6,9,18,3,9,4,0,0,0,6,0,0,0,0,0,0,0,0,0,0,0,0,0,0,0,0,0,0,0,0,0,0,0],"split_type":[0,0,0,0,0,0,0,0,0,0,0,0,0,0,0,0,0,0,0,0,0,0,0,0,0,0,0,0,0,0,0,0,0,0,0,0,0,0,0,0,0,0,0,0,0,0,0,0,0,0,0],"sum_hessian":[8.752001E2,7.344E2,1.408E2,5.4880005E2,1.856E2,4.8000004E1,9.28E1,4.6592004E2,8.2880005E1,1.06560005E2,7.904001E1,3.6480003E1,1.152E1,6.4000006E0,8.640001E1,1.0880001E2,3.5712003E2,6.2080006E1,2.0800001E1,2.6560001E1,8.000001E1,4.2880005E1,3.6160004E1,3.0720001E1,5.76E0,5.76E0,5.76E0,1.4080001E1,7.232001E1,9.1200005E1,1.76E1,4.4800003E1,3.1232E2,5.2160004E1,9.920001E0,9.6E0,1.1200001E1,8.960001E0,1.76E1,6.0800003E1,1.92E1,2.2720001E1,2.0160002E1,1.6640001E1,1.952E1,2.3360003E1,7.3600006E0,6.0800004E0,8.000001E0,2.0800001E1,5.1520004E1],"tree_param":{"num_deleted":"0","num_feature":"27","num_nodes":"51","size_leaf_vector":"1"}},{"base_weights":[-1.2003185E-1,8.949379E-1,-2.0559728E-1,1.1905928E0,3.2573518E-1,-4.0454477E-2,-3.8528016E-1,9.772983E-1,1.6321771E-1,7.438181E-1,-3.6444683E-2,2.1851371E-1,-2.6595402E-1,-2.3047684E-2,-4.4500843E-1,1.1918305E0,1.1204739E-2,1.1033285E-1,2.2979042E-2,8.901078E-1,3.0450042E-2,-3.223191E-2,-5.14078E-1,1.4879683E-1,-5.7429876E-2,-3.6569276E-1,-5.269667E-1,6.0684778E-2,1.4734729E-1,3.3279564E-2,1.2890318E-1,2.1970684E-2,-4.0008467E-2,5.4896068E-2,-1.6849196E-2,-5.624478E-2,-8.87564E-3,-1.21281175E-2,4.9032E-2,-4.7001645E-2,-8.43653E-3,-5.581987E-2,-2.3051713E-2],"categories":[],"categories_nodes":[],"categories_segments":[],"categories_sizes":[],"default_left":[0,0,0,0,0,0,0,0,0,0,0,0,0,0,0,0,0,0,0,0,0,0,0,0,0,0,0,0,0,0,0,0,0,0,0,0,0,0,0,0,0,0,0],"id":5,"left_children":[1,3,5,7,9,11,13,15,-1,17,-1,19,21,23,25,27,-1,-1,-1,29,31,33,35,37,-1,39,41,-1,-1,-1,-1,-1,-1,-1,-1,-1,-1,-1,-1,-1,-1,-1,-1],"loss_changes":[7.629998E1,1.1111179E1,2.3993553E1,2.6050873E0,7.4085407E0,2.4744581E1,8.370937E0,5.910776E0,0E0,2.6538954E0,0E0,2.489412E1,1.3113979E1,5.379714E0,1.968689E0,3.3876457E0,0E0,0E0,0E0,9.15992E0,1.2732524E1,9.410421E0,2.2081242E0,4.0626397E0,0E0,5.0153885E0,1.3643379E0,0E0,0E0,0E0,0E0,0E0,0E0,0E0,0E0,0E0,0E0,0E0,0E0,0E0,0E0,0E0,0E0],"parents":[2147483647,0,0,1,1,2,2,3,3,4,4,5,5,6,6,7,7,9,9,11,11,12,12,13,13,14,14,15,15,19,19,20,20,21,21,22,22,23,23,25,25,26,26],"right_children":[2,4,6,8,10,12,14,16,-1,18,-1,20,22,24,26,28,-1,-1,-1,30,32,34,36,38,-1,40,42,-1,-1,-1,-1,-1,-1,-1,-1,-1,-1,-1,-1,-1,-1,-1,-1],"split_conditions":[-1.425146E0,9.980365E-1,8.538676E-2,-3.4690335E-1,-1.6764743E0,2.3338743E-1,-8.042767E-1,4.3050355E-1,1.6321771E-1,-9.0474814E-1,-3.6444683E-2,-7.0246315E-1,-4.9510425E-1,1.5785062E-1,7.270361E-1,1.01009585E-1,1.1204739E-2,1.1033285E-1,2.2979042E-2,-1.0198745E0,5.8072495E-1,-1.0726743E0,7.085203E-1,4.2959723E-1,-5.7429876E-2,6.190502E-1,1.4356669E0,6.0684778E-2,1.4734729E-1,3.3279564E-2,1.2890318E-1,2.1970684E-2,-4.0008467E-2,5.4896068E-2,-1.6849196E-2,-5.624478E-2,-8.87564E-3,-1.21281175E-2,4.9032E-2,-4.7001645E-2,-8.43653E-3,-5.581987E-2,-2.3051713E-2],"split_indices":[0,6,0,1,0,6,18,4,0,1,0,8,2,6,0,19,0,0,0,17,24,0,18,3,0,1,11,0,0,0,0,0,0,0,0,0,0,0,0,0,0,0,0],"split_type":[0,0,0,0,0,0,0,0,0,0,0,0,0,0,0,0,0,0,0,0,0,0,0,0,0,0,0,0,0,0,0,0,0,0,0,0,0,0,0,0,0,0,0],"sum_hessian":[8.754445E2,6.7329445E1,8.0811505E2,4.3594128E1,2.373532E1,4.217336E2,3.8638147E2,3.1562122E1,1.2032003E1,1.4732988E1,9.002332E0,1.9631384E2,2.2541975E2,5.4888206E1,3.3149326E2,2.4988884E1,6.5732384E0,7.9949164E0,6.738072E0,4.213009E1,1.5418375E2,1.166605E2,1.0875926E2,4.240053E1,1.2487676E1,1.712383E2,1.6025496E2,9.146304E0,1.584258E1,1.8341097E1,2.3788992E1,1.0744304E2,4.674071E1,2.1581165E1,9.507933E1,9.736411E1,1.1395147E1,2.4036915E1,1.8363615E1,1.24426834E2,4.6811474E1,1.4418195E2,1.6073008E1],"tree_param":{"num_deleted":"0","num_feature":"27","num_nodes":"43","size_leaf_vector":"1"}},{"base_weights":[2.1052554E-2,-3.464561E-1,1.0531217E0,-5.5146307E-1,-7.521447E-2,-1.3718231E-1,1.5888301E0,-3.5907173E-1,-5.715861E-1,-4.2735392E-1,7.654064E-1,6.620388E-2,-2.601824E-1,1.7152747E0,6.431743E-1,-5.0306416E-1,4.285483E-2,-3.5022724E-1,-5.8481485E-1,2.5202549E-1,-5.0279284E-1,1.0883175E0,-4.2393252E-1,2.0142767E-1,-4.8683643E-1,9.06103E-1,1.7978632E0,1.0689552E-1,2.6138774E-1,-6.838771E-3,-5.9315074E-2,7.751081E-3,-5.1281776E-2,-6.0964055E-2,-4.6653517E-2,-4.6930663E-2,9.449755E-2,-5.54731E-2,-2.0401625E-2,1.422364E-1,5.6834817E-2,-5.7076305E-2,-9.743866E-3,7.1563534E-2,-4.606152E-2,-1.1604189E-2,-5.722303E-2,2.1051342E-2,1.4892913E-1,1.1988113E-1,1.8829884E-1,5.796765E-2,-8.188017E-3],"categories":[],"categories_nodes":[],"categories_segments":[],"categories_sizes":[],"default_left":[0,0,0,0,0,0,0,0,0,0,0,0,0,0,0,0,0,0,0,0,0,0,0,0,0,0,0,0,0,0,0,0,0,0,0,0,0,0,0,0,0,0,0,0,0,0,0,0,0,0,0,0,0],"id":6,"left_children":[1,3,5,7,9,11,13,15,17,19,21,-1,23,25,27,29,-1,31,33,35,37,39,41,43,45,47,49,-1,51,-1,-1,-1,-1,-1,-1,-1,-1,-1,-1,-1,-1,-1,-1,-1,-1,-1,-1,-1,-1,-1,-1,-1,-1],"loss_changes":[3.2721103E2,3.5335236E1,1.446617E2,1.1969528E0,8.173656E1,7.1741915E0,1.758554E1,4.4100633E0,7.503891E-1,1.0093395E1,3.1781403E1,0E0,6.6314487E0,7.5439453E0,2.9771986E0,1.2018652E0,0E0,1.492409E0,6.150131E-1,1.0491211E1,2.608101E0,1.0380692E1,8.1368923E-1,7.570986E0,1.2689753E0,5.6611786E0,4.0421753E0,0E0,1.3461266E0,0E0,0E0,0E0,0E0,0E0,0E0,0E0,0E0,0E0,0E0,0E0,0E0,0E0,0E0,0E0,0E0,0E0,0E0,0E0,0E0,0E0,0E0,0E0,0E0],"parents":[2147483647,0,0,1,1,2,2,3,3,4,4,5,5,6,6,7,7,8,8,9,9,10,10,12,12,13,13,14,14,15,15,17,17,18,18,19,19,20,20,21,21,22,22,23,23,24,24,25,25,26,26,28,28],"right_children":[2,4,6,8,10,12,14,16,18,20,22,-1,24,26,28,30,-1,32,34,36,38,40,42,44,46,48,50,-1,52,-1,-1,-1,-1,-1,-1,-1,-1,-1,-1,-1,-1,-1,-1,-1,-1,-1,-1,-1,-1,-1,-1,-1,-1],"split_conditions":[8.37629E-1,-2.5062177E-1,-6.89177E-1,-1.1803575E0,6.494423E-2,-1.6260695E0,6.9721913E-1,-3.067569E-1,-7.420356E-1,-1.2229396E0,5.1526713E-1,6.620388E-2,-1.42986E-1,-3.4380388E-1,6.214579E-1,-1.1196635E0,4.285483E-2,4.676175E-3,4.1788828E-1,-5.8411443E-1,-2.7901337E-1,2.1529546E-2,5.696708E-1,6.6932297E-1,-1.6436848E-1,-7.577774E-1,-8.443454E-1,1.0689552E-1,3.5580477E-1,-6.838771E-3,-5.9315074E-2,7.751081E-3,-5.1281776E-2,-6.0964055E-2,-4.6653517E-2,-4.6930663E-2,9.449755E-2,-5.54731E-2,-2.0401625E-2,1.422364E-1,5.6834817E-2,-5.7076305E-2,-9.743866E-3,7.1563534E-2,-4.606152E-2,-1.1604189E-2,-5.722303E-2,2.1051342E-2,1.4892913E-1,1.1988113E-1,1.8829884E-1,5.796765E-2,-8.188017E-3],"split_indices":[6,2,2,17,6,16,18,6,16,18,18,0,18,2,17,18,0,18,6,10,6,17,6,17,19,0,21,0,19,0,0,0,0,0,0,0,0,0,0,0,0,0,0,0,0,0,0,0,0,0,0,0,0],"split_type":[0,0,0,0,0,0,0,0,0,0,0,0,0,0,0,0,0,0,0,0,0,0,0,0,0,0,0,0,0,0,0,0,0,0,0,0,0,0,0,0,0,0,0,0,0,0,0,0,0,0,0,0,0],"sum_hessian":[8.6072156E2,6.3519855E2,2.2552303E2,3.6118127E2,2.7401727E2,7.022724E1,1.5529578E2,3.598464E1,3.2519666E2,1.9346545E2,8.055183E1,8.78197E0,6.144527E1,1.3626218E2,1.9033602E1,3.0728203E1,5.256434E0,1.9887718E1,3.0530893E2,1.9101604E1,1.7436385E2,6.341838E1,1.7133446E1,2.0271355E1,4.1173916E1,1.372834E1,1.2253384E2,8.147437E0,1.0886166E1,5.5771317E0,2.5151072E1,5.6216726E0,1.4266046E1,2.4891092E2,5.639801E1,9.517266E0,9.584338E0,1.478121E2,2.6551739E1,3.7555763E1,2.586262E1,1.1302389E1,5.8310575E0,1.1364002E1,8.907352E0,8.148903E0,3.3025013E1,6.8815E0,6.8468404E0,1.7122232E1,1.05411606E2,5.291251E0,5.5949144E0],"tree_param":{"num_deleted":"0","num_feature":"27","num_nodes":"53","size_leaf_vector":"1"}},{"base_weights":[6.1531045E-2,4.4150412E-1,-4.9071664E-1,5.811154E-1,1.0635013E-1,-3.6442927E-1,-5.6924486E-1,6.5992045E-1,6.592401E-2,-2.3065878E-1,4.4187617E-1,-4.9845275E-2,-5.634471E-1,-5.852886E-1,-2.7534464E-1,7.246647E-1,4.1964E-2,7.625895E-2,-1.11309595E-1,-8.257692E-2,-4.951177E-1,6.461655E-1,-1.9778259E-1,4.689492E-2,-1.5330233E-1,-4.1016632E-1,-5.9278328E-2,-3.601815E-2,-5.9370124E-1,-5.429414E-2,1.31136095E-2,8.3460204E-2,4.2604934E-2,-2.5190612E-2,3.6808364E-2,-4.5169365E-2,7.2388486E-3,-3.7928164E-2,1.3948889E-2,-5.9239667E-2,-1.6021898E-2,-2.6498994E-2,8.0780916E-2,4.2409148E-2,-5.0857004E-2,2.437327E-3,-5.1903803E-2,-6.508527E-3,-5.66347E-2,-4.7919765E-2,-6.0695387E-2],"categories":[],"categories_nodes":[],"categories_segments":[],"categories_sizes":[],"default_left":[0,0,0,0,0,0,0,0,0,0,0,0,0,0,0,0,0,0,0,0,0,0,0,0,0,0,0,0,0,0,0,0,0,0,0,0,0,0,0,0,0,0,0,0,0,0,0,0,0,0,0],"id":7,"left_children":[1,3,5,7,9,11,13,15,17,19,21,23,25,27,29,31,33,-1,35,37,39,41,43,-1,45,47,-1,-1,49,-1,-1,-1,-1,-1,-1,-1,-1,-1,-1,-1,-1,-1,-1,-1,-1,-1,-1,-1,-1,-1,-1],"loss_changes":[1.8942455E2,2.4956665E1,3.4420395E0,1.5271812E1,1.8019222E1,8.979511E0,9.0036774E-1,1.3055374E1,6.401419E0,3.0806704E0,1.0548509E1,3.123045E0,1.5268517E-1,1.8874359E-1,1.5441558E0,9.361496E0,3.1670973E0,0E0,2.637292E0,3.4987135E0,8.306999E-1,9.150572E0,4.0944324E0,0E0,3.1414995E0,9.0020347E-1,0E0,0E0,1.777649E-2,0E0,0E0,0E0,0E0,0E0,0E0,0E0,0E0,0E0,0E0,0E0,0E0,0E0,0E0,0E0,0E0,0E0,0E0,0E0,0E0,0E0,0E0],"parents":[2147483647,0,0,1,1,2,2,3,3,4,4,5,5,6,6,7,7,8,8,9,9,10,10,11,11,12,12,13,13,14,14,15,15,16,16,18,18,19,19,20,20,21,21,22,22,24,24,25,25,28,28],"right_children":[2,4,6,8,10,12,14,16,18,20,22,24,26,28,30,32,34,-1,36,38,40,42,44,-1,46,48,-1,-1,50,-1,-1,-1,-1,-1,-1,-1,-1,-1,-1,-1,-1,-1,-1,-1,-1,-1,-1,-1,-1,-1,-1],"split_conditions":[-1.704728E-1,6.0011786E-1,5.3399295E-1,8.015595E-1,6.358958E-2,1.8599677E-1,1.5547515E0,1.0288352E0,-8.6677796E-1,-7.150393E-1,4.5591992E-1,-1.0651301E0,6.112843E-1,-1.7572188E0,4.2842573E-1,7.718509E-1,3.30113E-1,7.625895E-2,3.4911722E-1,-5.848814E-1,-7.101135E-1,-4.4170344E-1,-8.402384E-1,4.689492E-2,3.1430957E-1,-5.474413E-1,-5.9278328E-2,-3.601815E-2,-9.7670704E-1,-5.429414E-2,1.31136095E-2,8.3460204E-2,4.2604934E-2,-2.5190612E-2,3.6808364E-2,-4.5169365E-2,7.2388486E-3,-3.7928164E-2,1.3948889E-2,-5.9239667E-2,-1.6021898E-2,-2.6498994E-2,8.0780916E-2,4.2409148E-2,-5.0857004E-2,2.437327E-3,-5.1903803E-2,-6.508527E-3,-5.66347E-2,-4.7919765E-2,-6.0695387E-2],"split_indices":[2,6,2,11,8,6,5,19,6,2,10,11,6,19,12,14,4,0,3,4,16,14,20,0,8,12,0,0,11,0,0,0,0,0,0,0,0,0,0,0,0,0,0,0,0,0,0,0,0,0,0],"split_type":[0,0,0,0,0,0,0,0,0,0,0,0,0,0,0,0,0,0,0,0,0,0,0,0,0,0,0,0,0,0,0,0,0,0,0,0,0,0,0,0,0,0,0,0,0,0,0,0,0,0,0],"sum_hessian":[9.006802E2,5.336818E2,3.6699835E2,3.762272E2,1.5745464E2,1.4287329E2,2.2412505E2,3.260698E2,5.0157413E1,7.8709656E1,7.874497E1,5.5847153E1,8.7026146E1,2.1158347E2,1.2541571E1,2.9499054E2,3.1079266E1,9.502497E0,4.065492E1,5.1297974E1,2.7411684E1,5.9675953E1,1.906902E1,8.697913E0,4.714924E1,1.638686E1,7.063929E1,9.200838E0,2.0238263E2,7.36035E0,5.181221E0,2.142997E2,8.069083E1,1.6467646E1,1.461162E1,1.3738752E1,2.6916166E1,2.1655645E1,2.964233E1,2.0645765E1,6.7659183E0,8.895325E0,5.078063E1,6.2328157E0,1.2836203E1,3.2361347E1,1.478789E1,5.5471544E0,1.08397045E1,2.4848532E1,1.775341E2],"tree_param":{"num_deleted":"0","num_feature":"27","num_nodes":"51","size_leaf_vector":"1"}},{"base_weights":[3.581291E-2,2.5479075E-1,-2.5097832E-1,4.5588556E-1,2.2740744E-2,8.5515743E-1,-3.4855917E-1,8.6638445E-1,3.7459257E-1,3.8065732E-1,-7.258237E-2,1.851855E-1,5.1979685E-1,-2.7092525E-1,-5.490978E-1,1.3957103E0,4.222232E-1,2.822389E-1,8.0106485E-1,-3.819872E-2,6.788039E-1,3.98619E-1,-1.5863568E-1,-2.5880788E-2,7.8978366E-1,-4.6220517E-1,-1.0574657E-1,-5.8621246E-2,-2.368877E-1,9.1231056E-2,1.8457358E-1,1.090759E-1,1.9533945E-2,-2.1466227E-2,3.5058603E-2,2.4731185E-2,1.11399904E-1,-2.9692112E-2,3.9469033E-2,8.5576214E-2,-6.520608E-3,8.4740184E-2,7.667072E-3,-2.433504E-2,6.1989296E-2,1.21394314E-1,-2.210372E-2,-4.9000334E-2,8.441883E-3,-2.3249801E-2,2.7032733E-2,1.0195268E-2,-5.270911E-2],"categories":[],"categories_nodes":[],"categories_segments":[],"categories_sizes":[],"default_left":[0,0,0,0,0,0,0,0,0,0,0,0,0,0,0,0,0,0,0,0,0,0,0,0,0,0,0,0,0,0,0,0,0,0,0,0,0,0,0,0,0,0,0,0,0,0,0,0,0,0,0,0,0],"id":8,"left_children":[1,3,5,7,9,11,13,15,17,19,21,-1,23,25,27,29,31,33,35,37,39,41,43,-1,45,47,49,-1,51,-1,-1,-1,-1,-1,-1,-1,-1,-1,-1,-1,-1,-1,-1,-1,-1,-1,-1,-1,-1,-1,-1,-1,-1],"loss_changes":[5.5405758E1,2.3330368E1,4.153454E1,8.615936E0,7.9863586E0,9.4862E0,5.3279495E0,9.643547E0,8.651165E0,6.1726575E0,7.5667934E0,0E0,5.4135313E0,8.026165E0,9.8747444E-1,2.5417938E0,3.5940614E0,6.419758E0,6.582634E0,2.5155103E0,3.848486E0,4.105012E0,1.0518021E1,0E0,8.263106E0,1.8364372E0,6.6621013E0,0E0,1.2342805E0,0E0,0E0,0E0,0E0,0E0,0E0,0E0,0E0,0E0,0E0,0E0,0E0,0E0,0E0,0E0,0E0,0E0,0E0,0E0,0E0,0E0,0E0,0E0,0E0],"parents":[2147483647,0,0,1,1,2,2,3,3,4,4,5,5,6,6,7,7,8,8,9,9,10,10,12,12,13,13,14,14,15,15,16,16,17,17,18,18,19,19,20,20,21,21,22,22,24,24,25,25,26,26,28,28],"right_children":[2,4,6,8,10,12,14,16,18,20,22,-1,24,26,28,30,32,34,36,38,40,42,44,-1,46,48,50,-1,52,-1,-1,-1,-1,-1,-1,-1,-1,-1,-1,-1,-1,-1,-1,-1,-1,-1,-1,-1,-1,-1,-1,-1,-1],"split_conditions":[-2.0630947E-1,1.4508542E-1,-1.6089427E0,-1.2899677E0,-8.521609E-1,-2.4823136E0,6.896316E-1,-1.7123352E-1,7.7537134E-2,-9.5686877E-1,-9.4890654E-1,1.851855E-1,-7.746595E-1,-2.1389987E-1,2.015657E0,1.3239211E-1,-2.1486347E0,-1.1196635E0,-1.2550619E-1,2.247871E-2,1.3174548E0,4.2897975E-1,1.1071709E0,-2.5880788E-2,4.2842573E-1,7.1433556E-1,8.330664E-1,-5.8621246E-2,1.4563283E-1,9.1231056E-2,1.8457358E-1,1.090759E-1,1.9533945E-2,-2.1466227E-2,3.5058603E-2,2.4731185E-2,1.11399904E-1,-2.9692112E-2,3.9469033E-2,8.5576214E-2,-6.520608E-3,8.4740184E-2,7.667072E-3,-2.433504E-2,6.1989296E-2,1.21394314E-1,-2.210372E-2,-4.9000334E-2,8.441883E-3,-2.3249801E-2,2.7032733E-2,1.0195268E-2,-5.270911E-2],"split_indices":[2,4,4,24,9,24,4,16,8,2,11,0,12,0,13,26,24,18,20,12,3,19,21,0,12,24,20,0,12,0,0,0,0,0,0,0,0,0,0,0,0,0,0,0,0,0,0,0,0,0,0,0,0],"split_type":[0,0,0,0,0,0,0,0,0,0,0,0,0,0,0,0,0,0,0,0,0,0,0,0,0,0,0,0,0,0,0,0,0,0,0,0,0,0,0,0,0,0,0,0,0,0,0,0,0,0,0,0,0],"sum_hessian":[8.8022614E2,4.9918658E2,3.8103955E2,2.66914E2,2.322726E2,3.0260103E1,3.5077945E2,4.2524395E1,2.2438959E2,4.8220875E1,1.8405173E2,6.479861E0,2.3780243E1,2.5457684E2,9.62026E1,1.8424627E1,2.4099766E1,1.858131E2,3.8576496E1,2.0413925E1,2.780695E1,2.7861038E1,1.5619069E2,6.1334944E0,1.7646748E1,1.1713461E2,1.3744223E2,8.5197E1,1.1005599E1,1.0342431E1,8.082196E0,5.1416907E0,1.8958075E1,2.2208778E1,1.6360432E2,1.4575211E1,2.4001286E1,1.2973951E1,7.4399743E0,2.2342678E1,5.4642706E0,1.0956298E1,1.6904741E1,1.4148282E2,1.470787E1,1.2289074E1,5.3576746E0,1.1156467E2,5.569949E0,1.0308154E2,3.4360687E1,5.376594E0,5.629005E0],"tree_param":{"num_deleted":"0","num_feature":"27","num_nodes":"53","size_leaf_vector":"1"}},{"base_weights":[4.39346E-3,-2.2610657E-1,1.163356E0,-4.3238991E-1,3.1336024E-1,2.5470716E-1,1.602204E0,-4.711947E-1,-1.2920439E-1,1.309033E-1,9.696576E-1,-4.594898E-2,9.5413506E-1,1.3108686E0,1.9410534E-1,-5.229138E-1,-2.709621E-1,-4.7694424E-1,1.0704211E-1,-3.9865285E-2,8.7647384E-1,4.8318666E-1,1.4620534E0,-2.6134157E-1,8.2211785E-2,2.9086256E-2,1.389988E-1,1.4701828E0,9.227564E-5,-5.42563E-2,-3.156092E-2,-5.0549425E-2,-3.6320311E-3,-5.871893E-2,-1.0368151E-2,-1.599898E-2,5.928414E-2,3.1126846E-2,-3.3761304E-2,4.8613857E-2,1.14209436E-1,1.3958781E-3,8.723824E-2,5.5820085E-2,1.7236063E-1,-4.72697E-2,5.709919E-2,5.7678163E-2,1.61993E-1],"categories":[],"categories_nodes":[],"categories_segments":[],"categories_sizes":[],"default_left":[0,0,0,0,0,0,0,0,0,0,0,0,0,0,0,0,0,0,0,0,0,0,0,0,0,0,0,0,0,0,0,0,0,0,0,0,0,0,0,0,0,0,0,0,0,0,0,0,0],"id":9,"left_children":[1,3,5,7,9,11,13,15,17,19,21,23,25,27,-1,29,31,33,35,37,39,41,43,45,-1,-1,-1,47,-1,-1,-1,-1,-1,-1,-1,-1,-1,-1,-1,-1,-1,-1,-1,-1,-1,-1,-1,-1,-1],"loss_changes":[2.368291E2,8.242708E1,5.8236404E1,6.2375565E0,2.4436424E1,1.0365894E1,7.226944E0,4.7693405E0,5.154587E0,2.0617823E1,9.9448395E0,6.811886E0,3.8749657E0,1.1748604E1,0E0,1.3595734E0,5.4529443E0,9.808216E-1,4.999488E0,1.3956997E1,2.5729313E0,4.3454127E0,4.145401E0,5.3763595E0,0E0,0E0,0E0,5.781227E0,0E0,0E0,0E0,0E0,0E0,0E0,0E0,0E0,0E0,0E0,0E0,0E0,0E0,0E0,0E0,0E0,0E0,0E0,0E0,0E0,0E0],"parents":[2147483647,0,0,1,1,2,2,3,3,4,4,5,5,6,6,7,7,8,8,9,9,10,10,11,11,12,12,13,13,15,15,16,16,17,17,18,18,19,19,20,20,21,21,22,22,23,23,27,27],"right_children":[2,4,6,8,10,12,14,16,18,20,22,24,26,28,-1,30,32,34,36,38,40,42,44,46,-1,-1,-1,48,-1,-1,-1,-1,-1,-1,-1,-1,-1,-1,-1,-1,-1,-1,-1,-1,-1,-1,-1,-1,-1],"split_conditions":[1.0626699E0,5.550046E-1,-1.3759248E-1,7.790452E-1,1.4208491E0,2.4634943E0,1.0277156E0,2.0765856E-1,-8.108249E-1,3.5760364E-1,-4.7930187E-1,7.651E-1,-6.9617254E-1,6.3539904E-1,1.9410534E-1,7.856997E-1,-7.2044253E-1,3.454993E-2,4.279627E-1,-4.4170344E-1,7.0097524E-1,-8.042643E-1,6.4503646E-1,6.2480325E-1,8.2211785E-2,2.9086256E-2,1.389988E-1,-3.3699507E-1,9.227564E-5,-5.42563E-2,-3.156092E-2,-5.0549425E-2,-3.6320311E-3,-5.871893E-2,-1.0368151E-2,-1.599898E-2,5.928414E-2,3.1126846E-2,-3.3761304E-2,4.8613857E-2,1.14209436E-1,1.3958781E-3,8.723824E-2,5.5820085E-2,1.7236063E-1,-4.72697E-2,5.709919E-2,5.7678163E-2,1.61993E-1],"split_indices":[9,4,8,16,18,9,4,4,4,16,9,18,10,17,0,18,2,10,9,14,16,21,8,11,0,0,0,18,0,0,0,0,0,0,0,0,0,0,0,0,0,0,0,0,0,0,0,0,0],"split_type":[0,0,0,0,0,0,0,0,0,0,0,0,0,0,0,0,0,0,0,0,0,0,0,0,0,0,0,0,0,0,0,0,0,0,0,0,0,0,0,0,0,0,0,0,0,0,0,0,0],"sum_hessian":[8.845479E2,7.384803E2,1.4606761E2,5.343515E2,2.0412883E2,4.8085484E1,9.7982124E1,4.7322867E2,6.1122818E1,1.6066255E2,4.346627E1,3.428293E1,1.3802556E1,5.5302673E1,4.267945E1,3.748065E2,9.842217E1,2.4314531E1,3.680829E1,1.3149168E2,2.9170874E1,2.2861326E1,2.0604942E1,2.8027443E1,6.2554846E0,6.134514E0,7.6680417E0,4.919706E1,6.1056128E0,3.4087924E2,3.3927242E1,4.8645294E1,4.9776882E1,1.8328106E1,5.9864254E0,2.4185036E1,1.2623251E1,6.031584E1,7.117584E1,1.29584055E1,1.6212467E1,1.0834609E1,1.2026716E1,5.3277893E0,1.5277154E1,2.2696243E1,5.3312E0,7.7588644E0,4.1438194E1],"tree_param":{"num_deleted":"0","num_feature":"27","num_nodes":"49","size_leaf_vector":"1"}},{"base_weights":[-1.3051626E-1,5.7883906E-1,-2.210777E-1,9.298077E-1,9.824097E-2,-9.0134494E-2,-3.7749863E-1,6.590026E-1,1.2730616E0,6.213651E-1,-3.0807784E-1,5.8650553E-2,-4.282126E-1,-4.0889522E-1,2.971414E-1,2.0981254E-1,9.65841E-1,8.3812006E-2,1.5040642E-1,-1.3938154E-2,1.0206872E-1,-5.795746E-2,1.7230151E-2,1.8398283E-1,-4.3577662E-1,-1.9800314E-1,-5.5419296E-1,-3.060545E-1,-5.151348E-1,-3.3470344E-2,1.02230005E-1,5.6135487E-2,-3.758394E-2,1.4894198E-1,6.351947E-2,1.0760169E-2,8.248561E-2,-5.215579E-2,-3.2002237E-3,-3.3201452E-2,5.7651043E-2,-5.7505745E-2,-3.178902E-2,-1.0212885E-2,-4.468615E-2,-1.8418865E-2,-5.247703E-2],"categories":[],"categories_nodes":[],"categories_segments":[],"categories_sizes":[],"default_left":[0,0,0,0,0,0,0,0,0,0,0,0,0,0,0,0,0,0,0,0,0,0,0,0,0,0,0,0,0,0,0,0,0,0,0,0,0,0,0,0,0,0,0,0,0,0,0],"id":10,"left_children":[1,3,5,7,9,11,13,15,17,19,21,23,25,27,29,31,33,-1,-1,-1,-1,-1,-1,35,37,39,41,43,45,-1,-1,-1,-1,-1,-1,-1,-1,-1,-1,-1,-1,-1,-1,-1,-1,-1,-1],"loss_changes":[5.5029457E1,1.6275494E1,1.5503738E1,4.362877E0,9.133865E0,2.0861801E1,7.4366226E0,4.394602E0,1.1111679E0,5.830128E0,3.2753212E0,1.795961E1,3.5651512E0,3.4524155E0,7.6441674E0,3.2610598E0,2.4366875E0,0E0,0E0,0E0,0E0,0E0,0E0,1.12131195E1,2.0145588E0,5.004581E0,2.1822357E-1,4.846078E0,4.1693497E-1,0E0,0E0,0E0,0E0,0E0,0E0,0E0,0E0,0E0,0E0,0E0,0E0,0E0,0E0,0E0,0E0,0E0,0E0],"parents":[2147483647,0,0,1,1,2,2,3,3,4,4,5,5,6,6,7,7,8,8,9,9,10,10,11,11,12,12,13,13,14,14,15,15,16,16,23,23,24,24,25,25,26,26,27,27,28,28],"right_children":[2,4,6,8,10,12,14,16,18,20,22,24,26,28,30,32,34,-1,-1,-1,-1,-1,-1,36,38,40,42,44,46,-1,-1,-1,-1,-1,-1,-1,-1,-1,-1,-1,-1,-1,-1,-1,-1,-1,-1],"split_conditions":[-1.2521796E0,9.496925E-1,1.9260019E-1,-5.8563405E-1,-1.6415474E0,7.642303E-1,2.5520127E0,1.01009585E-1,-3.8128665E-1,9.116901E-2,-4.57835E-2,7.239644E-1,-7.8693175E-1,-3.067569E-1,-1.4945812E0,-1.4204462E-1,-9.7879994E-1,8.3812006E-2,1.5040642E-1,-1.3938154E-2,1.0206872E-1,-5.795746E-2,1.7230151E-2,7.3721516E-1,-6.250583E-3,1.1069083E0,5.7690275E-1,-1.1474735E-1,-1.0609281E0,-3.3470344E-2,1.02230005E-1,5.6135487E-2,-3.758394E-2,1.4894198E-1,6.351947E-2,1.0760169E-2,8.248561E-2,-5.215579E-2,-3.2002237E-3,-3.3201452E-2,5.7651043E-2,-5.7505745E-2,-3.178902E-2,-1.0212885E-2,-4.468615E-2,-1.8418865E-2,-5.247703E-2],"split_indices":[0,6,0,2,0,6,3,19,4,19,3,24,1,6,14,20,1,0,0,0,0,0,0,3,0,19,9,24,13,0,0,0,0,0,0,0,0,0,0,0,0,0,0,0,0,0,0],"split_type":[0,0,0,0,0,0,0,0,0,0,0,0,0,0,0,0,0,0,0,0,0,0,0,0,0,0,0,0,0,0,0,0,0,0,0,0,0,0,0,0,0,0,0,0,0,0,0],"sum_hessian":[8.53628E2,9.603186E1,7.575961E2,5.496073E1,4.1071125E1,4.1324033E2,3.443558E2,3.235478E1,2.2605953E1,1.7723438E1,2.3347687E1,2.875283E2,1.2571201E2,3.294191E2,1.4936699E1,1.3814744E1,1.8540035E1,9.446969E0,1.3158985E1,6.324886E0,1.1398553E1,1.4785084E1,8.562602E0,2.2988313E2,5.764516E1,4.537251E1,8.033951E1,1.6935901E2,1.6006009E2,8.269641E0,6.6670585E0,8.658748E0,5.1559963E0,5.8198023E0,1.2720233E1,2.0644617E2,2.3436966E1,4.730383E1,1.0341332E1,3.916692E1,6.20559E0,7.250415E1,7.8353577E0,6.987986E1,9.947915E1,5.09739E0,1.5496269E2],"tree_param":{"num_deleted":"0","num_feature":"27","num_nodes":"47","size_leaf_vector":"1"}},{"base_weights":[1.6847791E-2,-3.59771E-1,7.88223E-1,-5.323959E-1,-7.613181E-2,-3.2291748E-2,1.3306665E0,1.7523235E-3,-5.4681975E-1,-3.6243552E-1,7.668788E-1,3.936088E-1,-3.8697395E-1,1.4011039E0,2.5316092E-1,-3.6874068E-1,-5.748219E-1,-7.0180595E-2,-5.3893054E-1,1.1958282E0,-3.97128E-1,6.777468E-1,-2.8420094E-1,1.2678842E-1,-5.4073226E-1,3.9788302E-2,1.4633348E0,6.644323E-2,-2.1627419E-2,6.218937E-2,-5.091072E-2,-5.8377933E-2,-1.6957594E-2,-3.2217436E-2,7.0622586E-2,-5.6295376E-2,-2.840885E-2,6.057431E-2,1.5935533E-1,-5.6242008E-2,-6.9388947E-3,1.0205229E-1,-2.1282954E-2,-5.544741E-2,6.834553E-3,-3.649361E-2,9.2109025E-2,-3.5580065E-2,-5.9708387E-2,1.5047257E-1,6.749631E-2],"categories":[],"categories_nodes":[],"categories_segments":[],"categories_sizes":[],"default_left":[0,0,0,0,0,0,0,0,0,0,0,0,0,0,0,0,0,0,0,0,0,0,0,0,0,0,0,0,0,0,0,0,0,0,0,0,0,0,0,0,0,0,0,0,0,0,0,0,0,0,0],"id":11,"left_children":[1,3,5,7,9,11,13,-1,15,17,19,21,23,25,27,29,31,33,35,37,39,41,43,45,47,-1,49,-1,-1,-1,-1,-1,-1,-1,-1,-1,-1,-1,-1,-1,-1,-1,-1,-1,-1,-1,-1,-1,-1,-1,-1],"loss_changes":[2.5571854E2,2.892041E1,1.285679E2,2.9248276E0,5.457158E1,1.7660458E1,1.2841003E1,0E0,1.574089E0,8.658867E0,2.9110065E1,1.0430708E1,5.1039333E0,9.59256E0,2.4390044E0,7.4718337E0,1.0179901E0,1.2872708E1,4.8270607E-1,8.92852E0,8.382468E-1,1.1741961E1,1.6011921E0,6.3872495E0,3.0080223E-1,0E0,3.9796753E0,0E0,0E0,0E0,0E0,0E0,0E0,0E0,0E0,0E0,0E0,0E0,0E0,0E0,0E0,0E0,0E0,0E0,0E0,0E0,0E0,0E0,0E0,0E0,0E0],"parents":[2147483647,0,0,1,1,2,2,3,3,4,4,5,5,6,6,8,8,9,9,10,10,11,11,12,12,13,13,14,14,15,15,16,16,17,17,18,18,19,19,20,20,21,21,22,22,23,23,24,24,26,26],"right_children":[2,4,6,8,10,12,14,-1,16,18,20,22,24,26,28,30,32,34,36,38,40,42,44,46,48,-1,50,-1,-1,-1,-1,-1,-1,-1,-1,-1,-1,-1,-1,-1,-1,-1,-1,-1,-1,-1,-1,-1,-1,-1,-1],"split_conditions":[6.887035E-1,3.8150847E-2,-3.2644096E-1,-7.7035135E-1,6.494423E-2,-1.1667438E0,1.0289919E0,1.7523235E-3,-1.1296678E0,-2.7489707E-1,3.29483E-1,1.0892009E0,8.2106344E-2,-1.55947E0,4.119674E-1,1.6352035E-1,6.3297457E-1,-3.769615E-1,7.718509E-1,3.8743845E-1,3.700751E-1,8.830426E-1,-4.572045E-1,8.340636E-3,-1.0302641E0,3.9788302E-2,6.544921E-1,6.644323E-2,-2.1627419E-2,6.218937E-2,-5.091072E-2,-5.8377933E-2,-1.6957594E-2,-3.2217436E-2,7.0622586E-2,-5.6295376E-2,-2.840885E-2,6.057431E-2,1.5935533E-1,-5.6242008E-2,-6.9388947E-3,1.0205229E-1,-2.1282954E-2,-5.544741E-2,6.834553E-3,-3.649361E-2,9.2109025E-2,-3.5580065E-2,-5.9708387E-2,1.5047257E-1,6.749631E-2],"split_indices":[6,2,2,16,6,16,18,0,17,18,18,17,17,8,9,16,6,6,14,21,3,18,21,10,16,0,9,0,0,0,0,0,0,0,0,0,0,0,0,0,0,0,0,0,0,0,0,0,0,0,0],"split_type":[0,0,0,0,0,0,0,0,0,0,0,0,0,0,0,0,0,0,0,0,0,0,0,0,0,0,0,0,0,0,0,0,0,0,0,0,0,0,0,0,0,0,0,0,0,0,0,0,0,0,0],"sum_hessian":[8.7825055E2,5.904842E2,2.8776636E2,3.6653268E2,2.2395149E2,1.1490238E2,1.7286398E2,9.36258E0,3.571701E2,1.6760088E2,5.6350628E1,5.2159622E1,6.2742756E1,1.6197522E2,1.0888754E1,5.0457214E1,3.067129E2,6.363178E1,1.0396909E2,4.115662E1,1.5194009E1,3.6752895E1,1.5406727E1,1.4492721E1,4.8250034E1,9.892503E0,1.5208272E2,5.5825253E0,5.306228E0,5.836401E0,4.4620815E1,2.99649E2,7.0639114E0,4.8481472E1,1.5150308E1,9.3907646E1,1.0061446E1,1.7586868E1,2.356975E1,9.624117E0,5.5698924E0,2.6433086E1,1.031981E1,8.396748E0,7.0099792E0,9.28516E0,5.207561E0,1.2976944E1,3.527309E1,1.4363307E2,8.449645E0],"tree_param":{"num_deleted":"0","num_feature":"27","num_nodes":"51","size_leaf_vector":"1"}},{"base_weights":[6.1480537E-2,4.4791391E-1,-4.24542E-1,6.0161E-1,1.4652684E-1,-2.2576022E-1,-5.261133E-1,6.95061E-1,-2.5264814E-2,2.3083463E-1,-1.4688067E-1,5.3385034E-2,-5.814871E-1,-5.3596723E-1,-6.8200002E-3,8.215265E-1,2.6187602E-1,-3.3686763E-1,4.0669578E-1,1.3050707E-1,1.6008876E-1,1.2700549E-1,-4.3934056E-1,7.0326006E-1,-1.1790455E-1,-3.4714263E-2,-5.974559E-2,-3.2148823E-1,-5.546733E-1,9.365479E-2,3.7396554E-2,-3.5060078E-3,7.197099E-2,9.219919E-3,-4.5539197E-2,9.777804E-2,-1.01005404E-4,2.498182E-2,-3.4136023E-2,7.747432E-2,-1.3614848E-2,-1.3768049E-2,-5.8103908E-2,1.4851319E-2,1.02804855E-1,9.573108E-3,-3.656278E-2,1.2571022E-2,-5.104232E-2,-5.8105815E-2,-4.8103113E-2],"categories":[],"categories_nodes":[],"categories_segments":[],"categories_sizes":[],"default_left":[0,0,0,0,0,0,0,0,0,0,0,0,0,0,0,0,0,0,0,0,0,0,0,0,0,0,0,0,0,0,0,0,0,0,0,0,0,0,0,0,0,0,0,0,0,0,0,0,0,0,0],"id":12,"left_children":[1,3,5,7,9,11,13,15,17,19,21,23,25,27,-1,29,31,33,35,-1,37,39,41,43,45,-1,-1,47,49,-1,-1,-1,-1,-1,-1,-1,-1,-1,-1,-1,-1,-1,-1,-1,-1,-1,-1,-1,-1,-1,-1],"loss_changes":[1.6781999E2,2.2965805E1,7.873352E0,1.9307571E1,4.2244573E0,1.3497301E1,1.1421585E0,1.5485535E1,6.0168824E0,9.821541E0,3.13356E0,8.643332E0,1.6050339E-2,8.4706116E-1,0E0,1.1045502E1,9.029167E0,1.3603716E0,4.368867E0,0E0,5.708206E0,3.6198533E0,7.238605E-1,2.7634068E0,3.3012018E0,0E0,0E0,1.9973979E0,1.7456818E-1,0E0,0E0,0E0,0E0,0E0,0E0,0E0,0E0,0E0,0E0,0E0,0E0,0E0,0E0,0E0,0E0,0E0,0E0,0E0,0E0,0E0,0E0],"parents":[2147483647,0,0,1,1,2,2,3,3,4,4,5,5,6,6,7,7,8,8,9,9,10,10,11,11,12,12,13,13,15,15,16,16,17,17,18,18,20,20,21,21,22,22,23,23,24,24,27,27,28,28],"right_children":[2,4,6,8,10,12,14,16,18,20,22,24,26,28,-1,30,32,34,36,-1,38,40,42,44,46,-1,-1,48,50,-1,-1,-1,-1,-1,-1,-1,-1,-1,-1,-1,-1,-1,-1,-1,-1,-1,-1,-1,-1,-1,-1],"split_conditions":[-3.826524E-1,1.197286E-1,2.804938E-1,1.0644017E0,1.12993695E-1,4.3150923E-1,1.964743E0,5.829503E-1,4.0077204E-1,-1.0006835E0,1.7347325E-1,-9.6185803E-1,-1.4196073E0,-1.311538E0,-6.8200002E-3,9.9691194E-1,3.107172E-1,-4.2878717E-1,9.212738E-1,1.3050707E-1,1.4356669E0,-7.010534E-1,-1.5206167E-1,-2.392847E-1,3.202846E-1,-3.4714263E-2,-5.974559E-2,2.210345E-1,7.09118E-1,9.365479E-2,3.7396554E-2,-3.5060078E-3,7.197099E-2,9.219919E-3,-4.5539197E-2,9.777804E-2,-1.01005404E-4,2.498182E-2,-3.4136023E-2,7.747432E-2,-1.3614848E-2,-1.3768049E-2,-5.8103908E-2,1.4851319E-2,1.02804855E-1,9.573108E-3,-3.656278E-2,1.2571022E-2,-5.104232E-2,-5.8105815E-2,-4.8103113E-2],"split_indices":[2,11,2,19,20,6,21,6,4,6,21,21,4,19,0,14,4,13,4,0,11,13,14,2,7,0,0,11,7,0,0,0,0,0,0,0,0,0,0,0,0,0,0,0,0,0,0,0,0,0,0],"split_type":[0,0,0,0,0,0,0,0,0,0,0,0,0,0,0,0,0,0,0,0,0,0,0,0,0,0,0,0,0,0,0,0,0,0,0,0,0,0,0,0,0,0,0,0,0,0,0,0,0,0,0],"sum_hessian":[8.915247E2,4.9668896E2,3.948358E2,3.2828156E2,1.684074E2,1.3461256E2,2.602232E2,2.855975E2,4.2684055E1,1.3098375E2,3.742364E1,7.590135E1,5.8711216E1,2.5457446E2,5.648744E0,2.2036649E2,6.5231026E1,2.4924467E1,1.7759586E1,7.0151615E0,1.2396859E2,1.9617634E1,1.780601E1,1.5184703E1,6.071665E1,5.1961217E0,5.3515095E1,2.1880814E1,2.3269365E2,1.7444283E2,4.592366E1,4.0128445E1,2.5102581E1,5.442895E0,1.9481573E1,6.81516E0,1.0944427E1,1.055782E2,1.8390387E1,5.105842E0,1.4511791E1,6.3209877E0,1.1485023E1,6.145425E0,9.039278E0,3.29308E1,2.7785847E1,6.598106E0,1.5282707E1,1.6624165E2,6.6452E1],"tree_param":{"num_deleted":"0","num_feature":"27","num_nodes":"51","size_leaf_vector":"1"}},{"base_weights":[6.981263E-2,2.6477915E-1,-2.0662029E-1,1.0194632E0,2.3199157E-1,7.335265E-1,-3.104416E-1,1.314389E0,9.830122E-3,-6.0284557E-3,3.072507E-1,2.680624E-1,1.3931794E0,-7.679617E-2,-4.1385695E-1,1.6792168E-1,7.6300025E-2,-4.4451025E-1,7.843098E-2,4.4922915E-1,1.321424E-1,4.9990138E-1,-3.8140867E-2,1.6670944E-1,8.007328E-2,8.461312E-2,-1.4511102E-1,-4.7898299E-1,1.7075367E-2,-1.5344523E-2,-5.8013584E-2,-4.126377E-3,3.3205163E-2,6.951103E-2,2.7851138E-2,9.1961674E-2,5.902777E-3,-1.2680734E-2,8.5666664E-2,-5.5733263E-2,2.188854E-3,-4.988163E-2,-5.2531934E-3,3.2186996E-2,-3.127108E-2],"categories":[],"categories_nodes":[],"categories_segments":[],"categories_sizes":[],"default_left":[0,0,0,0,0,0,0,0,0,0,0,0,0,0,0,0,0,0,0,0,0,0,0,0,0,0,0,0,0,0,0,0,0,0,0,0,0,0,0,0,0,0,0,0,0],"id":13,"left_children":[1,3,5,7,9,11,13,15,-1,17,19,21,23,25,27,-1,-1,29,31,33,35,37,-1,-1,-1,-1,39,41,43,-1,-1,-1,-1,-1,-1,-1,-1,-1,-1,-1,-1,-1,-1,-1,-1],"loss_changes":[4.7591545E1,1.2572731E1,3.58894E1,5.646366E0,8.91198E0,1.0874153E1,7.935257E0,1.941885E0,0E0,4.4964423E0,9.336666E0,3.6109855E0,1.085743E0,6.578631E0,6.416355E0,0E0,0E0,6.849983E-1,3.1060362E0,8.549797E0,9.770456E0,3.9482207E0,0E0,0E0,0E0,0E0,6.6339927E0,1.6517792E0,3.2109358E0,0E0,0E0,0E0,0E0,0E0,0E0,0E0,0E0,0E0,0E0,0E0,0E0,0E0,0E0,0E0,0E0],"parents":[2147483647,0,0,1,1,2,2,3,3,4,4,5,5,6,6,7,7,9,9,10,10,11,11,12,12,13,13,14,14,17,17,18,18,19,19,20,20,21,21,26,26,27,27,28,28],"right_children":[2,4,6,8,10,12,14,16,-1,18,20,22,24,26,28,-1,-1,30,32,34,36,38,-1,-1,-1,-1,40,42,44,-1,-1,-1,-1,-1,-1,-1,-1,-1,-1,-1,-1,-1,-1,-1,-1],"split_conditions":[-2.0630947E-1,-1.7138472E0,-1.5729703E0,5.933505E-1,-6.121115E-1,8.091643E-1,-4.5373794E-1,-2.5393903E-2,9.830122E-3,-8.0241174E-1,1.01009585E-1,5.780908E-1,-3.067569E-1,-1.6974949E0,1.0136186E0,1.6792168E-1,7.6300025E-2,-2.7386543E-1,1.5554027E-1,-7.504855E-1,-7.463932E-1,-5.758348E-1,-3.8140867E-2,1.6670944E-1,8.007328E-2,8.461312E-2,-9.7689664E-1,1.5603888E0,9.6346426E-1,-1.5344523E-2,-5.8013584E-2,-4.126377E-3,3.3205163E-2,6.951103E-2,2.7851138E-2,9.1961674E-2,5.902777E-3,-1.2680734E-2,8.5666664E-2,-5.5733263E-2,2.188854E-3,-4.988163E-2,-5.2531934E-3,3.2186996E-2,-3.127108E-2],"split_indices":[2,4,4,16,18,14,4,21,0,20,19,11,6,5,17,0,0,16,13,1,4,7,0,0,0,0,18,21,4,0,0,0,0,0,0,0,0,0,0,0,0,0,0,0,0],"split_type":[0,0,0,0,0,0,0,0,0,0,0,0,0,0,0,0,0,0,0,0,0,0,0,0,0,0,0,0,0,0,0,0,0,0,0,0,0,0,0,0,0,0,0,0,0],"sum_hessian":[8.810242E2,5.1666534E2,3.6435886E2,2.0259165E1,4.9640616E2,3.563184E1,3.28727E2,1.5022554E1,5.2366104E0,1.1947276E2,3.769334E2,2.1715397E1,1.3916445E1,1.01393074E2,2.2733392E2,7.80977E0,7.212785E0,1.8607353E1,1.0086541E2,2.072936E2,1.6963982E2,1.6172619E1,5.5427775E0,8.27611E0,5.640335E0,6.203163E0,9.518991E1,1.9739107E2,2.9942856E1,6.591905E0,1.2015448E1,6.909415E1,3.1771267E1,8.368796E1,1.2360564E2,1.3428768E1,1.5621106E2,6.1006055E0,1.0072014E1,2.6771019E1,6.841889E1,1.8845667E2,8.934407E0,1.5573519E1,1.4369336E1],"tree_param":{"num_deleted":"0","num_feature":"27","num_nodes":"45","size_leaf_vector":"1"}},{"base_weights":[-1.3409181E-2,-2.460479E-1,9.5738375E-1,-3.6746734E-1,4.72417E-1,2.2739187E-1,1.3477979E0,-4.3187675E-1,1.8188896E-2,-1.2107813E-1,7.904184E-1,6.0024434E-1,-3.8815773E-1,2.4722455E-1,1.4797455E0,-2.4785899E-1,-5.0258803E-1,-4.372721E-1,2.6054057E-1,6.0045805E-2,-3.823015E-1,3.2377744E-1,1.2056628E0,-2.4033902E-2,8.349464E-1,4.5308038E-3,-5.3489108E-2,7.225777E-2,-3.7613314E-2,1.5395001E0,5.1345177E-2,-4.0834785E-2,3.923639E-3,-5.729961E-2,-4.0869612E-2,-5.8645524E-2,-1.079828E-2,-4.2646673E-2,4.5099013E-2,-4.6103537E-2,-2.4987594E-3,-2.632234E-2,7.9560444E-2,5.177874E-2,1.451852E-1,-1.961614E-2,1.0544341E-1,7.603896E-2,1.582915E-1],"categories":[],"categories_nodes":[],"categories_segments":[],"categories_sizes":[],"default_left":[0,0,0,0,0,0,0,0,0,0,0,0,0,0,0,0,0,0,0,0,0,0,0,0,0,0,0,0,0,0,0,0,0,0,0,0,0,0,0,0,0,0,0,0,0,0,0,0,0],"id":14,"left_children":[1,3,5,7,9,11,13,15,17,19,21,23,25,27,29,31,33,35,37,-1,39,41,43,-1,45,-1,-1,-1,-1,47,-1,-1,-1,-1,-1,-1,-1,-1,-1,-1,-1,-1,-1,-1,-1,-1,-1,-1,-1],"loss_changes":[1.9894351E2,6.2159393E1,4.8225998E1,1.5120338E1,1.9565395E1,1.4127886E1,1.5716782E1,6.6595383E0,9.830585E0,7.176553E0,1.2650906E1,7.7165966E0,1.5154483E0,4.140692E0,4.9080353E0,6.7753925E0,2.24926E0,1.4568553E0,7.7918177E0,0E0,7.669568E-1,9.365074E0,5.21698E0,0E0,6.997366E0,0E0,0E0,0E0,0E0,1.9232635E0,0E0,0E0,0E0,0E0,0E0,0E0,0E0,0E0,0E0,0E0,0E0,0E0,0E0,0E0,0E0,0E0,0E0,0E0,0E0],"parents":[2147483647,0,0,1,1,2,2,3,3,4,4,5,5,6,6,7,7,8,8,9,9,10,10,11,11,12,12,13,13,14,14,15,15,16,16,17,17,18,18,20,20,21,21,22,22,24,24,29,29],"right_children":[2,4,6,8,10,12,14,16,18,20,22,24,26,28,30,32,34,36,38,-1,40,42,44,-1,46,-1,-1,-1,-1,48,-1,-1,-1,-1,-1,-1,-1,-1,-1,-1,-1,-1,-1,-1,-1,-1,-1,-1,-1],"split_conditions":[8.986968E-1,9.460839E-1,1.2732989E-1,7.856997E-1,-9.235623E-2,-5.733412E-1,-4.4566926E-1,-3.769615E-1,-7.531479E-1,-1.4556293E-1,5.9773374E-1,1.523394E0,1.1508495E0,-8.267356E-1,1.1898566E0,4.5159113E-2,-1.1359423E-1,6.650786E-1,-8.187851E-1,6.0045805E-2,1.2531389E0,-1.0108444E-1,7.7227366E-1,-2.4033902E-2,-1.2134109E0,4.5308038E-3,-5.3489108E-2,7.225777E-2,-3.7613314E-2,-2.5302923E-1,5.1345177E-2,-4.0834785E-2,3.923639E-3,-5.729961E-2,-4.0869612E-2,-5.8645524E-2,-1.079828E-2,-4.2646673E-2,4.5099013E-2,-4.6103537E-2,-2.4987594E-3,-2.632234E-2,7.9560444E-2,5.177874E-2,1.451852E-1,-1.961614E-2,1.0544341E-1,7.603896E-2,1.582915E-1],"split_indices":[9,4,18,18,0,6,24,6,22,6,18,9,1,6,17,1,4,0,11,0,6,16,8,0,4,0,0,0,0,8,0,0,0,0,0,0,0,0,0,0,0,0,0,0,0,0,0,0,0],"split_type":[0,0,0,0,0,0,0,0,0,0,0,0,0,0,0,0,0,0,0,0,0,0,0,0,0,0,0,0,0,0,0,0,0,0,0,0,0,0,0,0,0,0,0,0,0,0,0,0,0],"sum_hessian":[8.7884595E2,7.09556E2,1.6928992E2,6.073956E2,1.02160385E2,5.9541794E1,1.0974812E2,5.2036786E2,8.702776E1,3.5857586E1,6.6302795E1,3.7096478E1,2.2445318E1,1.2056735E1,9.769139E1,1.4570169E2,3.7466617E2,2.9945576E1,5.7082184E1,9.185976E0,2.6671612E1,3.205733E1,3.4245464E1,8.091789E0,2.9004686E1,5.85127E0,1.6594048E1,6.750128E0,5.306607E0,9.144342E1,6.2479653E0,9.3187E1,5.25147E1,2.1119315E2,1.6347302E2,2.007136E1,9.874217E0,1.2120549E1,4.4961636E1,2.1617853E1,5.053758E0,1.4482163E1,1.7575169E1,9.843897E0,2.4401567E1,5.1091657E0,2.3895521E1,5.8038473E0,8.563957E1],"tree_param":{"num_deleted":"0","num_feature":"27","num_nodes":"49","size_leaf_vector":"1"}},{"base_weights":[-1.178686E-1,4.674818E-1,-2.1856527E-1,8.798448E-1,3.06068E-1,-6.021558E-2,-3.8931596E-1,1.4091732E-1,6.8292487E-1,1.22518435E-1,2.2328283E-1,-1.4316022E-1,3.5051447E-1,-4.3281958E-1,1.4364174E-1,1.1893951E-1,4.1212538E-1,-3.2034612E-1,3.3397514E-1,-2.1813884E-1,2.7446806E-1,5.875966E-1,-2.2972736E-1,-2.7874884E-1,-4.8924676E-1,9.282515E-2,-2.6134288E-1,-1.0546875E-3,7.994461E-2,-2.5950994E-3,-5.4692913E-2,-1.3680944E-2,4.9901225E-2,3.3742696E-2,-2.6322363E-2,5.746301E-2,-2.9254233E-2,2.7877871E-2,9.486005E-2,-5.6620877E-2,1.4142503E-2,2.1390717E-2,-3.4782838E-2,-3.5552364E-2,-5.4665912E-2,-4.8370622E-2,1.4014624E-2],"categories":[],"categories_nodes":[],"categories_segments":[],"categories_sizes":[],"default_left":[0,0,0,0,0,0,0,0,0,0,0,0,0,0,0,0,0,0,0,0,0,0,0,0,0,0,0,0,0,0,0,0,0,0,0,0,0,0,0,0,0,0,0,0,0,0,0],"id":15,"left_children":[1,3,5,7,9,11,13,-1,15,-1,17,19,21,23,25,-1,27,29,31,33,35,37,39,41,43,-1,45,-1,-1,-1,-1,-1,-1,-1,-1,-1,-1,-1,-1,-1,-1,-1,-1,-1,-1,-1,-1],"loss_changes":[5.013519E1,8.0448265E0,1.957745E1,2.6448002E0,6.673667E0,1.2904196E1,8.145214E0,0E0,3.2352724E0,0E0,5.2208476E0,9.911729E0,8.895536E0,2.6679268E0,8.841131E0,0E0,3.156513E0,9.7884154E-1,5.5921597E0,6.7838354E0,8.393785E0,4.807143E0,2.4768271E0,3.0962229E0,1.6080742E0,0E0,1.7308505E0,0E0,0E0,0E0,0E0,0E0,0E0,0E0,0E0,0E0,0E0,0E0,0E0,0E0,0E0,0E0,0E0,0E0,0E0,0E0,0E0],"parents":[2147483647,0,0,1,1,2,2,3,3,4,4,5,5,6,6,8,8,10,10,11,11,12,12,13,13,14,14,16,16,17,17,18,18,19,19,20,20,21,21,22,22,23,23,24,24,26,26],"right_children":[2,4,6,8,10,12,14,-1,16,-1,18,20,22,24,26,-1,28,30,32,34,36,38,40,42,44,-1,46,-1,-1,-1,-1,-1,-1,-1,-1,-1,-1,-1,-1,-1,-1,-1,-1,-1,-1,-1,-1],"split_conditions":[-1.1041898E0,-1.7058792E0,1.3405849E-1,-2.098939E0,-9.873421E-1,6.377006E-1,2.100883E0,1.4091732E-1,-1.01261966E-1,1.22518435E-1,-9.537109E-1,7.374414E-1,7.0181185E-1,-5.5547297E-1,1.3441484E0,1.1893951E-1,-1.02131404E-1,-7.0109826E-1,-7.0336974E-1,-1.382049E0,3.377517E-1,7.020267E-1,3.837625E-1,-7.814689E-1,4.957543E-1,9.282515E-2,2.5628037E0,-1.0546875E-3,7.994461E-2,-2.5950994E-3,-5.4692913E-2,-1.3680944E-2,4.9901225E-2,3.3742696E-2,-2.6322363E-2,5.746301E-2,-2.9254233E-2,2.7877871E-2,9.486005E-2,-5.6620877E-2,1.4142503E-2,2.1390717E-2,-3.4782838E-2,-3.5552364E-2,-5.4665912E-2,-4.8370622E-2,1.4014624E-2],"split_indices":[0,0,0,0,20,5,3,0,14,0,7,1,11,4,0,0,5,2,5,3,4,3,17,10,0,0,13,0,0,0,0,0,0,0,0,0,0,0,0,0,0,0,0,0,0,0,0],"split_type":[0,0,0,0,0,0,0,0,0,0,0,0,0,0,0,0,0,0,0,0,0,0,0,0,0,0,0,0,0,0,0,0,0,0,0,0,0,0,0,0,0,0,0,0,0,0,0],"sum_hessian":[8.478396E2,1.2390963E2,7.2392993E2,3.3605907E1,9.030373E1,3.7630618E2,3.4762378E2,7.442937E0,2.616297E1,6.3213916E0,8.398233E1,3.1362317E2,6.2683006E1,3.2156348E2,2.6060287E1,7.9333124E0,1.8229656E1,1.3886978E1,7.009535E1,2.6629224E2,4.7330933E1,4.4491474E1,1.819153E1,8.779232E1,2.3377116E2,8.432075E0,1.7628212E1,9.182176E0,9.047482E0,6.524434E0,7.3625445E0,1.82387E1,5.1856655E1,1.9501158E1,2.4679109E2,3.0939072E1,1.639186E1,2.4934065E1,1.9557411E1,9.265773E0,8.925758E0,1.0538456E1,7.725387E1,7.237947E1,1.613917E2,1.1213099E1,6.4151144E0],"tree_param":{"num_deleted":"0","num_feature":"27","num_nodes":"47","size_leaf_vector":"1"}},{"base_weights":[1.0580843E-3,-3.460203E-1,8.2694876E-1,-5.292508E-1,-4.980116E-2,-5.7983615E-2,1.1628562E0,-5.6382436E-1,-3.2544935E-1,-3.8319924E-1,7.5518924E-1,3.368662E-1,-2.9301852E-1,-1.9632422E-4,1.2105733E0,-3.754742E-1,-5.8016485E-1,-4.727617E-1,5.1893305E-2,7.543811E-2,-4.2912576E-1,9.087763E-1,-5.49707E-2,-4.529308E-2,7.282938E-1,4.0404573E-1,-5.0668126E-1,7.6621515E-1,1.3173838E0,-2.1090424E-2,-5.5780508E-2,-5.8610003E-2,-4.139897E-2,-3.638858E-3,-5.445018E-2,-5.6085806E-2,-1.9995134E-2,9.288109E-3,1.0970383E-1,1.2220784E-1,2.5423992E-2,-3.7003618E-3,7.80813E-2,-5.8651574E-2,-1.8934827E-2,1.1145873E-1,2.6677093E-2,1.385319E-1,7.398237E-2],"categories":[],"categories_nodes":[],"categories_segments":[],"categories_sizes":[],"default_left":[0,0,0,0,0,0,0,0,0,0,0,0,0,0,0,0,0,0,0,0,0,0,0,0,0,0,0,0,0,0,0,0,0,0,0,0,0,0,0,0,0,0,0,0,0,0,0,0,0],"id":16,"left_children":[1,3,5,7,9,11,13,15,17,19,21,23,25,-1,27,29,31,33,-1,-1,35,37,-1,-1,39,41,43,45,47,-1,-1,-1,-1,-1,-1,-1,-1,-1,-1,-1,-1,-1,-1,-1,-1,-1,-1,-1,-1],"loss_changes":[2.500716E2,3.3313416E1,7.680081E1,2.4898453E0,6.3588497E1,6.778537E0,1.0405136E1,7.7630615E-1,7.38441E0,9.071829E0,1.4410553E1,8.77676E0,7.0044403E0,0E0,7.52417E0,7.4114656E-1,4.8690796E-2,1.5264025E0,0E0,0E0,4.765999E0,9.494923E0,0E0,0E0,4.055455E0,1.9012208E0,7.854614E-1,6.180912E0,4.6080933E0,0E0,0E0,0E0,0E0,0E0,0E0,0E0,0E0,0E0,0E0,0E0,0E0,0E0,0E0,0E0,0E0,0E0,0E0,0E0,0E0],"parents":[2147483647,0,0,1,1,2,2,3,3,4,4,5,5,6,6,7,7,8,8,9,9,10,10,11,11,12,12,14,14,15,15,16,16,17,17,20,20,21,21,24,24,25,25,26,26,27,27,28,28],"right_children":[2,4,6,8,10,12,14,16,18,20,22,24,26,-1,28,30,32,34,-1,-1,36,38,-1,-1,40,42,44,46,48,-1,-1,-1,-1,-1,-1,-1,-1,-1,-1,-1,-1,-1,-1,-1,-1,-1,-1,-1,-1],"split_conditions":[8.37629E-1,4.8414294E-2,-7.1108216E-1,4.9522683E-1,1.501572E-1,-1.2396266E0,-1.6415474E0,-1.2293575E0,-4.2175296E-1,-2.2837331E0,8.532174E-1,-8.17477E-1,8.2106344E-2,-1.9632422E-4,-6.210193E-1,-1.8282516E-1,1.5603888E0,-7.4262077E-1,5.1893305E-2,7.543811E-2,-6.7817074E-1,-6.428667E-1,-5.49707E-2,-4.529308E-2,1.3531784E0,-1.4204462E-1,-9.3003297E-1,3.4091324E-1,1.0136186E0,-2.1090424E-2,-5.5780508E-2,-5.8610003E-2,-4.139897E-2,-3.638858E-3,-5.445018E-2,-5.6085806E-2,-1.9995134E-2,9.288109E-3,1.0970383E-1,1.2220784E-1,2.5423992E-2,-3.7003618E-3,7.80813E-2,-5.8651574E-2,-1.8934827E-2,1.1145873E-1,2.6677093E-2,1.385319E-1,7.398237E-2],"split_indices":[6,2,2,6,6,16,0,7,2,7,4,21,17,0,21,17,21,7,0,0,6,21,0,0,6,20,1,17,17,0,0,0,0,0,0,0,0,0,0,0,0,0,0,0,0,0,0,0,0],"split_type":[0,0,0,0,0,0,0,0,0,0,0,0,0,0,0,0,0,0,0,0,0,0,0,0,0,0,0,0,0,0,0,0,0,0,0,0,0,0,0,0,0,0,0,0,0,0,0,0,0],"sum_hessian":[8.7039886E2,6.132593E2,2.571396E2,3.7840497E2,2.3485431E2,7.097821E1,1.8616138E2,3.2201132E2,5.6393646E1,1.664434E2,6.8410904E1,2.632311E1,4.4655098E1,7.3637805E0,1.787976E2,2.7620445E1,2.943909E2,4.8391327E1,8.002322E0,5.8603077E0,1.605831E2,6.1478424E1,6.93248E0,8.670736E0,1.7652372E1,1.0267344E1,3.4387753E1,3.623295E1,1.4256465E2,1.5650852E1,1.1969592E1,2.81799E2,1.25918865E1,7.045136E0,4.134619E1,1.0105065E2,5.953245E1,1.1806113E1,4.967231E1,7.8733697E0,9.779003E0,5.1456065E0,5.121738E0,2.6797731E1,7.590022E0,2.061908E1,1.5613867E1,1.2630905E2,1.6255604E1],"tree_param":{"num_deleted":"0","num_feature":"27","num_nodes":"49","size_leaf_vector":"1"}},{"base_weights":[4.6311717E-2,3.9421E-1,-4.0128332E-1,5.032221E-1,9.89789E-2,-1.747727E-1,-5.095807E-1,7.8581655E-1,4.2045024E-1,3.2986942E-1,-1.4845018E-1,-4.015643E-1,2.3589891E-1,-4.4129956E-1,-5.9367698E-2,8.701771E-1,5.1463833E-3,-7.628443E-2,4.8334962E-1,6.925017E-1,1.5338916E-2,9.6710965E-2,-2.9062337E-1,-4.8541692E-1,-1.9233238E-3,3.9033407E-1,-5.4872494E-2,-5.1553298E-2,-5.1160204E-1,6.489914E-2,1.2080588E-1,1.0706963E-1,-3.554091E-2,-2.3307895E-2,5.281812E-2,4.0962495E-2,1.307998E-1,-4.477292E-2,2.761074E-2,-4.3553475E-2,3.2567337E-2,-5.1478175E-3,-3.8272124E-2,-3.5881538E-2,-5.6795817E-2,-5.1930476E-2,3.2779675E-2,5.5190265E-2,-1.5611361E-2,-4.154889E-2,3.407144E-2,-3.7958983E-2,-5.6148376E-2],"categories":[],"categories_nodes":[],"categories_segments":[],"categories_sizes":[],"default_left":[0,0,0,0,0,0,0,0,0,0,0,0,0,0,0,0,0,0,0,0,0,0,0,0,0,0,0,0,0,0,0,0,0,0,0,0,0,0,0,0,0,0,0,0,0,0,0,0,0,0,0,0,0],"id":17,"left_children":[1,3,5,7,9,11,13,15,17,19,21,23,25,27,-1,29,-1,31,33,35,37,39,41,43,45,47,-1,49,51,-1,-1,-1,-1,-1,-1,-1,-1,-1,-1,-1,-1,-1,-1,-1,-1,-1,-1,-1,-1,-1,-1,-1,-1],"loss_changes":[1.401774E2,1.6249466E1,9.569653E0,8.315491E0,7.9223437E0,1.209844E1,1.2646255E0,5.0714684E0,9.036495E0,8.156187E0,2.3709335E0,2.793871E0,5.8466616E0,4.1007156E0,0E0,4.747364E0,0E0,1.1021583E1,8.339138E0,5.250759E0,4.8772755E0,3.2399015E0,9.2281556E-1,5.165348E-1,2.8089378E0,3.5667367E0,0E0,3.5863037E0,6.2641144E-1,0E0,0E0,0E0,0E0,0E0,0E0,0E0,0E0,0E0,0E0,0E0,0E0,0E0,0E0,0E0,0E0,0E0,0E0,0E0,0E0,0E0,0E0,0E0,0E0],"parents":[2147483647,0,0,1,1,2,2,3,3,4,4,5,5,6,6,7,7,8,8,9,9,10,10,11,11,12,12,13,13,15,15,17,17,18,18,19,19,20,20,21,21,22,22,23,23,24,24,25,25,27,27,28,28],"right_children":[2,4,6,8,10,12,14,16,18,20,22,24,26,28,-1,30,-1,32,34,36,38,40,42,44,46,48,-1,50,52,-1,-1,-1,-1,-1,-1,-1,-1,-1,-1,-1,-1,-1,-1,-1,-1,-1,-1,-1,-1,-1,-1,-1,-1],"split_conditions":[-4.1188866E-1,2.8645307E-1,2.2923015E-1,-4.7039434E-1,-4.2936248E-1,3.4596482E-1,1.7218341E-1,6.589609E-1,-9.9583334E-1,8.5110873E-1,-2.3575674E-1,7.61856E-1,1.0450206E0,5.3399295E-1,-5.9367698E-2,-1.4556293E-1,5.1463833E-3,-8.0485255E-1,-9.473993E-1,9.106695E-1,-7.504855E-1,-8.141638E-1,4.6176076E-1,6.0942423E-2,-1.0927078E-1,1.5981658E-1,-5.4872494E-2,3.814363E-1,1.0748376E0,6.489914E-2,1.2080588E-1,1.0706963E-1,-3.554091E-2,-2.3307895E-2,5.281812E-2,4.0962495E-2,1.307998E-1,-4.477292E-2,2.761074E-2,-4.3553475E-2,3.2567337E-2,-5.1478175E-3,-3.8272124E-2,-3.5881538E-2,-5.6795817E-2,-5.1930476E-2,3.2779675E-2,5.5190265E-2,-1.5611361E-2,-4.154889E-2,3.407144E-2,-3.7958983E-2,-5.6148376E-2],"split_indices":[2,11,2,26,20,16,6,6,4,11,19,24,24,2,0,6,0,6,6,5,1,19,11,11,1,11,0,2,2,0,0,0,0,0,0,0,0,0,0,0,0,0,0,0,0,0,0,0,0,0,0,0,0],"split_type":[0,0,0,0,0,0,0,0,0,0,0,0,0,0,0,0,0,0,0,0,0,0,0,0,0,0,0,0,0,0,0,0,0,0,0,0,0,0,0,0,0,0,0,0,0,0,0,0,0,0,0,0,0],"sum_hessian":[8.9818695E2,5.054441E2,3.9274286E2,3.686267E2,1.3681738E2,1.27882484E2,2.6486038E2,8.158625E1,2.8704047E2,7.060166E1,6.621573E1,8.239976E1,4.5482727E1,1.4962305E2,1.15237335E2,7.301367E1,8.572578E0,3.2237633E1,2.5480283E2,3.2235092E1,3.836657E1,2.4422216E1,4.179351E1,6.79317E1,1.4468055E1,3.8422634E1,7.060091E0,2.3129562E1,1.26493484E2,4.5892246E1,2.7121426E1,5.754657E0,2.6482975E1,1.4758382E1,2.4004445E2,2.3226097E1,9.008996E0,1.3563603E1,2.4802969E1,7.07454E0,1.7347677E1,1.2053594E1,2.9739914E1,2.8920555E1,3.9011147E1,5.407644E0,9.0604105E0,2.9646925E1,8.775711E0,1.1967362E1,1.11622E1,3.7050064E1,8.944342E1],"tree_param":{"num_deleted":"0","num_feature":"27","num_nodes":"53","size_leaf_vector":"1"}},{"base_weights":[4.397832E-2,2.267614E-1,-1.9550702E-1,1.2012818E-1,4.430841E-1,2.8705645E-1,-3.2101026E-1,3.6638963E-1,3.6843468E-2,4.919045E-1,-3.7162255E-2,-1.7607889E-1,5.4898345E-1,-2.4472061E-1,-5.34096E-1,1.9607596E-1,5.732448E-1,2.4869703E-1,-7.448413E-2,2.9076383E-1,6.830684E-1,4.5145443E-1,-5.3569376E-2,8.69678E-1,1.1773158E-1,-1.4158316E-1,-5.448379E-1,-6.5539987E-3,-5.684939E-1,-5.0256867E-3,5.6183E-2,1.0390085E-1,3.845807E-2,-1.2054049E-3,5.190723E-2,2.8856953E-3,-3.0804703E-2,1.23121016E-1,2.0894138E-2,9.338831E-2,3.77654E-2,2.3709532E-2,5.9592105E-2,1.2166995E-1,3.6896426E-2,4.473962E-2,-1.953978E-2,7.977328E-3,-2.7900813E-2,-2.9976463E-2,-5.752499E-2,-3.876012E-2,-5.929799E-2],"categories":[],"categories_nodes":[],"categories_segments":[],"categories_sizes":[],"default_left":[0,0,0,0,0,0,0,0,0,0,0,0,0,0,0,0,0,0,0,0,0,0,0,0,0,0,0,0,0,0,0,0,0,0,0,0,0,0,0,0,0,0,0,0,0,0,0,0,0,0,0,0,0],"id":18,"left_children":[1,3,5,7,9,11,13,15,17,19,-1,21,23,25,27,29,31,33,35,37,39,41,-1,43,45,47,49,-1,51,-1,-1,-1,-1,-1,-1,-1,-1,-1,-1,-1,-1,-1,-1,-1,-1,-1,-1,-1,-1,-1,-1,-1,-1],"loss_changes":[3.9110355E1,1.1632786E1,2.3520643E1,6.974368E0,6.8210983E0,9.846314E0,4.867634E0,2.9171886E0,6.0495887E0,5.872532E0,0E0,6.9648027E0,7.0311565E0,6.988179E0,1.2555885E0,4.4143953E0,2.9669495E0,6.2327013E0,4.0734262E0,5.7971697E0,5.7918587E0,2.116015E-1,0E0,4.663992E0,2.4776354E0,5.231014E0,2.6005745E-1,0E0,1.0057831E-1,0E0,0E0,0E0,0E0,0E0,0E0,0E0,0E0,0E0,0E0,0E0,0E0,0E0,0E0,0E0,0E0,0E0,0E0,0E0,0E0,0E0,0E0,0E0,0E0],"parents":[2147483647,0,0,1,1,2,2,3,3,4,4,5,5,6,6,7,7,8,8,9,9,11,11,12,12,13,13,14,14,15,15,16,16,17,17,18,18,19,19,20,20,21,21,23,23,24,24,25,25,26,26,28,28],"right_children":[2,4,6,8,10,12,14,16,18,20,-1,22,24,26,28,30,32,34,36,38,40,42,-1,44,46,48,50,-1,52,-1,-1,-1,-1,-1,-1,-1,-1,-1,-1,-1,-1,-1,-1,-1,-1,-1,-1,-1,-1,-1,-1,-1,-1],"split_conditions":[-2.7046967E-1,3.8185403E-1,-1.0176821E0,-8.607118E-1,1.2445397E0,-9.8558384E-1,8.2517153E-1,-1.44956E-1,-2.3248748E-1,-1.7642531E-1,-3.7162255E-2,-1.8962799E0,4.99375E-1,9.417496E-1,-1.0214075E0,-8.7575305E-1,-5.229812E-1,-1.13249935E-1,-6.150016E-1,-2.0265663E0,2.3891732E-1,-3.0224392E-1,-5.3569376E-2,-1.7149946E-1,6.840699E-1,4.279627E-1,-1.3674392E0,-6.5539987E-3,-7.4805033E-1,-5.0256867E-3,5.6183E-2,1.0390085E-1,3.845807E-2,-1.2054049E-3,5.190723E-2,2.8856953E-3,-3.0804703E-2,1.23121016E-1,2.0894138E-2,9.338831E-2,3.77654E-2,2.3709532E-2,5.9592105E-2,1.2166995E-1,3.6896426E-2,4.473962E-2,-1.953978E-2,7.977328E-3,-2.7900813E-2,-2.9976463E-2,-5.752499E-2,-3.876012E-2,-5.929799E-2],"split_indices":[9,20,24,2,8,18,6,0,24,18,0,24,5,18,3,9,25,0,2,24,5,11,0,12,2,9,14,0,14,0,0,0,0,0,0,0,0,0,0,0,0,0,0,0,0,0,0,0,0,0,0,0,0],"split_type":[0,0,0,0,0,0,0,0,0,0,0,0,0,0,0,0,0,0,0,0,0,0,0,0,0,0,0,0,0,0,0,0,0,0,0,0,0,0,0,0,0,0,0,0,0,0,0,0,0,0,0,0,0],"sum_hessian":[8.914508E2,5.056076E2,3.858432E2,3.3970844E2,1.6589917E2,7.9371254E1,3.0647192E2,8.49939E1,2.5471454E2,1.568937E2,9.005464E0,2.8791075E1,5.058018E1,2.2725708E2,7.921487E1,4.768251E1,3.7311386E1,8.731756E1,1.6739699E2,7.768031E1,7.9213394E1,1.0395459E1,1.8395615E1,2.8425392E1,2.2154789E1,1.7022856E2,5.7028507E1,5.61634E0,7.3598526E1,2.900825E1,1.8674263E1,9.457077E0,2.7854307E1,4.4936253E1,4.23813E1,1.1665766E2,5.0739326E1,5.0931864E0,7.258713E1,4.236463E1,3.6848763E1,5.2486725E0,5.1467867E0,1.5944836E1,1.2480556E1,1.0583559E1,1.1571229E1,6.536378E1,1.0486479E2,7.4941545E0,4.9534355E1,1.0781165E1,6.281736E1],"tree_param":{"num_deleted":"0","num_feature":"27","num_nodes":"53","size_leaf_vector":"1"}},{"base_weights":[5.9120012E-3,-2.6264295E-1,8.2771605E-1,-4.355902E-1,2.0272289E-1,3.3118126E-1,1.2427652E0,-3.326878E-2,-4.7778413E-1,-2.0094244E-1,4.808421E-1,1.0381819E0,4.524332E-2,5.7094884E-1,1.319639E0,-1.6732828E-1,8.007934E-2,-3.1694382E-1,-5.462355E-1,4.34163E-1,-4.3931946E-1,8.589814E-1,2.1898127E-1,3.9763015E-2,1.3538449E0,-2.840821E-1,4.7009906E-1,1.0714091E-1,-3.28131E-3,8.4915143E-1,1.3615092E0,3.2088917E-2,-2.7672557E-2,-4.650427E-2,2.9760387E-3,-5.6187358E-2,-3.474623E-2,9.524829E-3,1.2207364E-1,-2.2381699E-2,-5.4099627E-2,-4.176109E-3,1.12935245E-1,5.9666177E-3,7.858316E-2,1.58923E-1,7.1617246E-2,-5.674997E-2,-1.408297E-2,7.544352E-2,-3.5306774E-2,5.0778028E-2,1.0661658E-1,1.0834222E-1,1.4519475E-1],"categories":[],"categories_nodes":[],"categories_segments":[],"categories_sizes":[],"default_left":[0,0,0,0,0,0,0,0,0,0,0,0,0,0,0,0,0,0,0,0,0,0,0,0,0,0,0,0,0,0,0,0,0,0,0,0,0,0,0,0,0,0,0,0,0,0,0,0,0,0,0,0,0,0,0],"id":19,"left_children":[1,3,5,7,9,11,13,15,17,19,21,23,25,27,29,31,-1,33,35,37,39,41,43,-1,45,47,49,-1,-1,51,53,-1,-1,-1,-1,-1,-1,-1,-1,-1,-1,-1,-1,-1,-1,-1,-1,-1,-1,-1,-1,-1,-1,-1,-1],"loss_changes":[1.9620677E2,5.4018295E1,4.4713898E1,8.282387E0,2.0555597E1,2.0382906E1,5.387436E0,5.442469E0,4.6971664E0,1.15519905E1,1.05249405E1,5.336849E0,1.0347725E1,4.2567735E0,9.3070984E-1,2.317526E0,0E0,6.916993E0,7.650223E-1,5.4773426E0,1.0853958E0,1.0744408E1,5.847131E0,0E0,1.7210083E0,1.6150589E0,7.8156877E0,0E0,0E0,2.9681396E-1,8.317261E-1,0E0,0E0,0E0,0E0,0E0,0E0,0E0,0E0,0E0,0E0,0E0,0E0,0E0,0E0,0E0,0E0,0E0,0E0,0E0,0E0,0E0,0E0,0E0,0E0],"parents":[2147483647,0,0,1,1,2,2,3,3,4,4,5,5,6,6,7,7,8,8,9,9,10,10,11,11,12,12,13,13,14,14,15,15,17,17,18,18,19,19,20,20,21,21,22,22,24,24,25,25,26,26,29,29,30,30],"right_children":[2,4,6,8,10,12,14,16,18,20,22,24,26,28,30,32,-1,34,36,38,40,42,44,-1,46,48,50,-1,-1,52,54,-1,-1,-1,-1,-1,-1,-1,-1,-1,-1,-1,-1,-1,-1,-1,-1,-1,-1,-1,-1,-1,-1,-1,-1],"split_conditions":[6.544921E-1,5.907978E-1,3.5750997E-1,-8.070154E-1,-9.235623E-2,-1.474652E0,-5.0573766E-1,6.538581E-1,-2.1137764E-1,-1.4556293E-1,-1.4713046E-1,-4.0697834E-1,2.8305125E-1,-7.3295414E-1,-8.921573E-1,-6.716809E-1,8.007934E-2,3.511107E-2,7.3680514E-1,1.2837829E-1,-2.3462002E-1,-7.504855E-1,1.5389704E0,3.9763015E-2,6.7707755E-2,-9.259329E-1,8.965484E-1,1.0714091E-1,-3.28131E-3,-5.019733E-2,-6.204058E-1,3.2088917E-2,-2.7672557E-2,-4.650427E-2,2.9760387E-3,-5.6187358E-2,-3.474623E-2,9.524829E-3,1.2207364E-1,-2.2381699E-2,-5.4099627E-2,-4.176109E-3,1.12935245E-1,5.9666177E-3,7.858316E-2,1.58923E-1,7.1617246E-2,-5.674997E-2,-1.408297E-2,7.544352E-2,-3.5306774E-2,5.0778028E-2,1.0661658E-1,1.0834222E-1,1.4519475E-1],"split_indices":[9,4,4,14,0,6,0,16,6,6,13,11,0,6,20,12,0,4,0,11,14,1,24,0,13,4,21,0,0,7,11,0,0,0,0,0,0,0,0,0,0,0,0,0,0,0,0,0,0,0,0,0,0,0,0],"split_type":[0,0,0,0,0,0,0,0,0,0,0,0,0,0,0,0,0,0,0,0,0,0,0,0,0,0,0,0,0,0,0,0,0,0,0,0,0,0,0,0,0,0,0,0,0,0,0,0,0,0,0,0,0,0,0],"sum_hessian":[8.8703705E2,6.69073E2,2.17964E2,4.878382E2,1.8123482E2,1.0005881E2,1.17905205E2,4.6475945E1,4.4136224E2,7.4044014E1,1.0719081E2,2.8056484E1,7.200232E1,1.2971514E1,1.04933685E2,4.072893E1,5.747013E0,1.3344252E2,3.0791974E2,1.9982777E1,5.4061237E1,4.2924923E1,6.4265884E1,1.0007885E1,1.8048601E1,4.0748E1,3.1254324E1,6.6690006E0,6.3025126E0,1.0314319E1,9.461937E1,7.101804E0,3.362713E1,9.326285E1,4.017967E1,2.837682E2,2.4151535E1,1.4748927E1,5.2338495E0,1.835639E1,3.5704845E1,1.0105142E1,3.2819782E1,5.102922E1,1.3236667E1,1.2092601E1,5.9559994E0,1.2686624E1,2.8061377E1,2.3292267E1,7.962057E0,5.3066382E0,5.007681E0,2.640541E1,6.821396E1],"tree_param":{"num_deleted":"0","num_feature":"27","num_nodes":"55","size_leaf_vector":"1"}},{"base_weights":[-8.4587805E-2,9.717478E-2,-1.7957553E-1,2.7525792E-1,-3.356078E-1,-9.2963554E-2,-3.3539382E-1,2.0249505E-1,6.9864714E-1,3.5676786E-1,-5.089704E-1,-1.6472211E-1,2.408458E-1,-4.5088112E-1,-1.8157423E-1,-2.8869763E-1,2.8197697E-1,9.5196015E-1,-1.5921814E-2,-3.5829972E-2,6.697358E-1,-9.639158E-3,-5.4599732E-2,1.8858108E-1,-2.4283066E-1,-2.5732023E-1,3.5842067E-1,-4.762097E-1,-1.162516E-2,-8.252528E-2,-5.2480556E-2,-4.4067703E-2,2.1694077E-2,7.601868E-2,2.0194089E-2,5.952701E-2,1.3572949E-1,1.4779004E-2,1.1443778E-1,-5.6994404E-3,5.380688E-2,-3.154243E-2,-4.8033474E-4,1.4554574E-2,-5.3436786E-2,1.6107406E-2,7.222065E-2,-1.5047267E-2,-5.0551552E-2,-2.8399343E-2,1.20749995E-2],"categories":[],"categories_nodes":[],"categories_segments":[],"categories_sizes":[],"default_left":[0,0,0,0,0,0,0,0,0,0,0,0,0,0,0,0,0,0,0,0,0,0,0,0,0,0,0,0,0,0,0,0,0,0,0,0,0,0,0,0,0,0,0,0,0,0,0,0,0,0,0],"id":20,"left_children":[1,3,5,7,9,11,13,15,17,19,21,23,25,27,29,31,33,35,-1,-1,37,-1,-1,39,41,43,45,47,-1,49,-1,-1,-1,-1,-1,-1,-1,-1,-1,-1,-1,-1,-1,-1,-1,-1,-1,-1,-1,-1,-1],"loss_changes":[1.4685818E1,2.2616455E1,7.504036E0,6.254092E0,1.0462211E1,8.668946E0,3.4548492E0,7.052693E0,6.67896E0,4.2098274E0,1.0000782E0,8.244625E0,3.849386E0,9.027405E-1,2.9161487E0,2.044732E0,5.74833E0,2.565525E0,0E0,0E0,2.973959E0,0E0,0E0,4.695651E0,4.210271E0,1.5098505E0,3.6394968E0,9.2401123E-1,0E0,2.8495474E0,0E0,0E0,0E0,0E0,0E0,0E0,0E0,0E0,0E0,0E0,0E0,0E0,0E0,0E0,0E0,0E0,0E0,0E0,0E0,0E0,0E0],"parents":[2147483647,0,0,1,1,2,2,3,3,4,4,5,5,6,6,7,7,8,8,9,9,10,10,11,11,12,12,13,13,14,14,15,15,16,16,17,17,20,20,23,23,24,24,25,25,26,26,27,27,29,29],"right_children":[2,4,6,8,10,12,14,16,18,20,22,24,26,28,30,32,34,36,-1,-1,38,-1,-1,40,42,44,46,48,-1,50,-1,-1,-1,-1,-1,-1,-1,-1,-1,-1,-1,-1,-1,-1,-1,-1,-1,-1,-1,-1,-1],"split_conditions":[-5.1997465E-1,5.624194E-1,5.6791663E-1,1.2740837E0,-8.137729E-1,6.7446864E-1,5.572315E-1,-9.3577814E-1,1.0287104E0,-1.0152509E0,-8.8776237E-1,-9.7879994E-1,-1.7116265E0,1.1899734E0,1.6801046E0,1.6496323E0,-8.3979005E-1,-7.2145784E-1,-1.5921814E-2,-3.5829972E-2,-3.7158507E-1,-9.639158E-3,-5.4599732E-2,2.252924E-1,4.2829898E-1,-2.846103E-1,5.924711E-1,-9.387309E-1,-1.162516E-2,-6.393873E-1,-5.2480556E-2,-4.4067703E-2,2.1694077E-2,7.601868E-2,2.0194089E-2,5.952701E-2,1.3572949E-1,1.4779004E-2,1.1443778E-1,-5.6994404E-3,5.380688E-2,-3.154243E-2,-4.8033474E-4,1.4554574E-2,-5.3436786E-2,1.6107406E-2,7.222065E-2,-1.5047267E-2,-5.0551552E-2,-2.8399343E-2,1.20749995E-2],"split_indices":[18,6,24,9,2,9,17,11,13,18,1,1,6,12,4,14,1,17,0,0,12,0,0,19,17,8,7,12,0,16,0,0,0,0,0,0,0,0,0,0,0,0,0,0,0,0,0,0,0,0,0],"split_type":[0,0,0,0,0,0,0,0,0,0,0,0,0,0,0,0,0,0,0,0,0,0,0,0,0,0,0,0,0,0,0,0,0,0,0,0,0,0,0,0,0,0,0,0,0,0,0,0,0,0,0],"sum_hessian":[8.485907E2,2.9124997E2,5.5734076E2,2.0660095E2,8.464901E1,3.5924832E2,1.9809244E2,1.775635E2,2.9037443E1,1.673897E1,6.791004E1,2.9610214E2,6.314616E1,1.1204109E2,8.605135E1,2.4363924E1,1.5319958E2,2.2333157E1,6.704286E0,5.051799E0,1.168717E1,5.889425E0,6.202062E1,5.3354218E1,2.4274794E2,1.1830717E1,5.131544E1,1.03763954E2,8.277139E0,6.774274E1,1.8308615E1,1.8832058E1,5.531865E0,2.0745956E1,1.3245363E2,1.3192496E1,9.14066E0,6.1907787E0,5.4963913E0,3.18271E1,2.1527117E1,1.8576738E2,5.6980556E1,5.014128E0,6.816589E0,3.4203495E1,1.7111946E1,9.071205E0,9.469275E1,3.382317E1,3.3919567E1],"tree_param":{"num_deleted":"0","num_feature":"27","num_nodes":"51","size_leaf_vector":"1"}},{"base_weights":[1.815482E-3,-3.9036784E-1,6.435328E-1,-5.3589106E-1,-1.6436507E-1,-6.370985E-2,1.0624095E0,-5.646673E-1,-3.5842425E-1,-3.9311105E-1,5.6984687E-1,3.4013087E-1,-2.6690096E-1,1.1144409E0,-1.502595E-2,-4.3261376E-1,-5.838666E-2,-5.113797E-1,5.9720237E-2,2.6036069E-2,-5.1799214E-1,8.1632155E-1,-3.9452497E-2,-8.32745E-2,8.474782E-1,-3.3284447E-1,2.61095E-2,3.9768878E-1,1.1642288E0,-5.5039544E-2,2.6250094E-2,-2.1206122E-2,-5.52063E-2,-5.6922715E-2,3.9935242E-2,-9.097929E-3,-5.4611307E-2,-2.9969936E-2,1.02881745E-1,-3.6154516E-2,7.082617E-2,1.4436643E-1,4.270151E-2,-4.193267E-2,-5.2848845E-3,-3.2347616E-2,1.01102106E-1,1.205461E-1,5.463137E-2],"categories":[],"categories_nodes":[],"categories_segments":[],"categories_sizes":[],"default_left":[0,0,0,0,0,0,0,0,0,0,0,0,0,0,0,0,0,0,0,0,0,0,0,0,0,0,0,0,0,0,0,0,0,0,0,0,0,0,0,0,0,0,0,0,0,0,0,0,0],"id":21,"left_children":[1,3,5,7,9,11,13,15,17,19,21,23,25,27,-1,29,-1,31,-1,33,35,37,-1,39,41,43,-1,45,47,-1,-1,-1,-1,-1,-1,-1,-1,-1,-1,-1,-1,-1,-1,-1,-1,-1,-1,-1,-1],"loss_changes":[2.1656573E2,1.7477806E1,9.676634E1,1.454567E0,3.5601437E1,1.0131017E1,1.3105774E1,4.5083618E-1,7.3226404E0,8.45122E0,1.2312719E1,8.963028E0,2.9406104E0,6.557678E0,0E0,3.343884E0,0E0,3.9343452E-1,0E0,8.661786E0,1.442234E0,9.913666E0,0E0,5.426769E0,4.126498E0,1.7527885E0,0E0,6.6508856E0,4.0151367E0,0E0,0E0,0E0,0E0,0E0,0E0,0E0,0E0,0E0,0E0,0E0,0E0,0E0,0E0,0E0,0E0,0E0,0E0,0E0,0E0],"parents":[2147483647,0,0,1,1,2,2,3,3,4,4,5,5,6,6,7,7,8,8,9,9,10,10,11,11,12,12,13,13,15,15,17,17,19,19,20,20,21,21,23,23,24,24,25,25,27,27,28,28],"right_children":[2,4,6,8,10,12,14,16,18,20,22,24,26,28,-1,30,-1,32,-1,34,36,38,-1,40,42,44,-1,46,48,-1,-1,-1,-1,-1,-1,-1,-1,-1,-1,-1,-1,-1,-1,-1,-1,-1,-1,-1,-1],"split_conditions":[6.112843E-1,3.8150847E-2,-3.4380388E-1,3.2836077E-1,6.494423E-2,-1.3073227E-1,1.4459505E0,-1.1803575E0,-5.410222E-1,-8.135877E-1,3.471815E-1,1.0647464E0,1.0481584E0,-1.55947E0,-1.502595E-2,-3.067569E-1,-5.838666E-2,-8.141638E-1,5.9720237E-2,-5.268812E-1,-1.3371027E0,-7.697138E-1,-3.9452497E-2,-1.735019E-1,-2.5367972E-1,-7.150393E-1,2.61095E-2,9.578297E-3,1.1818539E0,-5.5039544E-2,2.6250094E-2,-2.1206122E-2,-5.52063E-2,-5.6922715E-2,3.9935242E-2,-9.097929E-3,-5.4611307E-2,-2.9969936E-2,1.02881745E-1,-3.6154516E-2,7.082617E-2,1.4436643E-1,4.270151E-2,-4.193267E-2,-5.2848845E-3,-3.2347616E-2,1.01102106E-1,1.205461E-1,5.463137E-2],"split_indices":[6,22,22,6,6,18,18,17,22,18,4,6,21,8,0,6,0,19,0,10,24,21,0,0,7,22,0,21,17,0,0,0,0,0,0,0,0,0,0,0,0,0,0,0,0,0,0,0,0],"split_type":[0,0,0,0,0,0,0,0,0,0,0,0,0,0,0,0,0,0,0,0,0,0,0,0,0,0,0,0,0,0,0,0,0,0,0,0,0,0,0,0,0,0,0,0,0,0,0,0,0],"sum_hessian":[8.585136E2,5.331019E2,3.254117E2,3.2345685E2,2.0964505E2,1.2135707E2,2.0405464E2,2.7644888E2,4.700797E1,1.6019911E2,4.9445946E1,4.0396137E1,8.096094E1,1.9573724E2,8.317404E0,3.8078247E1,2.3837065E2,4.092283E1,6.0851407E0,3.6955215E1,1.232439E2,3.9503212E1,9.942735E0,2.24753E1,1.7920835E1,7.230064E1,8.660304E0,1.3297191E1,1.8244005E2,3.2739067E1,5.339179E0,5.6400294E0,3.52828E1,1.4041258E1,2.291396E1,7.8764396E0,1.15367455E2,6.2528853E0,3.3250324E1,1.7031116E1,5.444184E0,6.4052086E0,1.1515628E1,5.4858788E1,1.7441847E1,6.3285646E0,6.968626E0,1.7013634E2,1.2303702E1],"tree_param":{"num_deleted":"0","num_feature":"27","num_nodes":"49","size_leaf_vector":"1"}},{"base_weights":[6.45087E-2,3.3263072E-1,-4.3654826E-1,4.5002878E-1,3.539241E-2,-2.9554227E-1,-5.23317E-1,5.463749E-1,1.4088522E-1,-2.548679E-1,2.9841468E-1,-6.138794E-2,-5.6219336E-2,-7.943618E-3,-5.467641E-1,6.009005E-1,3.8075905E-2,-3.088653E-1,2.710602E-1,9.922978E-3,-4.2243037E-1,6.4992917E-1,8.012623E-2,1.27153E-1,-3.8353014E-1,-5.561502E-1,-2.6325209E-2,6.637129E-2,2.197794E-2,-3.9975695E-2,4.153332E-2,-5.3902246E-2,1.9730173E-2,5.0237823E-2,-8.14537E-3,2.0652508E-2,-4.643446E-2,2.4168044E-3,-5.2677613E-2,8.301245E-2,-5.056797E-3,-6.7717726E-3,5.6765586E-2,-5.325402E-2,2.5107829E-2,6.548047E-3,-5.2628577E-2,-5.8737617E-2,-5.0079193E-2],"categories":[],"categories_nodes":[],"categories_segments":[],"categories_sizes":[],"default_left":[0,0,0,0,0,0,0,0,0,0,0,0,0,0,0,0,0,0,0,0,0,0,0,0,0,0,0,0,0,0,0,0,0,0,0,0,0,0,0,0,0,0,0,0,0,0,0,0,0],"id":22,"left_children":[1,3,5,7,9,11,13,15,17,19,21,23,-1,-1,25,27,29,31,33,35,37,39,41,43,45,47,-1,-1,-1,-1,-1,-1,-1,-1,-1,-1,-1,-1,-1,-1,-1,-1,-1,-1,-1,-1,-1,-1,-1],"loss_changes":[1.1945729E2,2.0191734E1,3.6382866E0,1.2285141E1,1.2676603E1,7.4825344E0,1.9404526E0,8.737465E0,5.936282E0,3.509367E0,6.627181E0,4.0103526E0,0E0,0E0,3.3493805E-1,6.6862183E0,5.4003363E0,2.7748904E0,6.406023E0,3.041825E0,2.268488E0,4.233531E0,3.9912465E0,3.5587807E0,1.5939672E0,6.954193E-3,0E0,0E0,0E0,0E0,0E0,0E0,0E0,0E0,0E0,0E0,0E0,0E0,0E0,0E0,0E0,0E0,0E0,0E0,0E0,0E0,0E0,0E0,0E0],"parents":[2147483647,0,0,1,1,2,2,3,3,4,4,5,5,6,6,7,7,8,8,9,9,10,10,11,11,14,14,15,15,16,16,17,17,18,18,19,19,20,20,21,21,22,22,23,23,24,24,25,25],"right_children":[2,4,6,8,10,12,14,16,18,20,22,24,-1,-1,26,28,30,32,34,36,38,40,42,44,46,48,-1,-1,-1,-1,-1,-1,-1,-1,-1,-1,-1,-1,-1,-1,-1,-1,-1,-1,-1,-1,-1,-1,-1],"split_conditions":[-1.1317418E-1,4.9522683E-1,5.051611E-1,2.9108936E-1,4.29244E-2,6.214881E-1,-1.6570599E0,1.0644017E0,-4.9612933E-1,8.1300914E-1,-2.6972505E-1,2.2221528E-2,-5.6219336E-2,-7.943618E-3,1.8095287E0,-4.6729758E-1,-2.5926596E-1,4.3284932E-1,-3.210488E-1,6.228278E-1,-9.058846E-1,5.498917E-1,1.2865615E0,-1.0748438E0,-9.046971E-1,-1.4190625E-1,-2.6325209E-2,6.637129E-2,2.197794E-2,-3.9975695E-2,4.153332E-2,-5.3902246E-2,1.9730173E-2,5.0237823E-2,-8.14537E-3,2.0652508E-2,-4.643446E-2,2.4168044E-3,-5.2677613E-2,8.301245E-2,-5.056797E-3,-6.7717726E-3,5.6765586E-2,-5.325402E-2,2.5107829E-2,6.548047E-3,-5.2628577E-2,-5.8737617E-2,-5.0079193E-2],"split_indices":[2,6,2,11,8,6,19,19,0,6,11,11,0,0,21,2,6,24,20,14,2,20,24,4,19,14,0,0,0,0,0,0,0,0,0,0,0,0,0,0,0,0,0,0,0,0,0,0,0],"split_type":[0,0,0,0,0,0,0,0,0,0,0,0,0,0,0,0,0,0,0,0,0,0,0,0,0,0,0,0,0,0,0,0,0,0,0,0,0,0,0,0,0,0,0,0,0,0,0,0,0],"sum_hessian":[8.871061E2,5.7809576E2,3.0901035E2,4.1404816E2,1.6404759E2,1.1939316E2,1.8961717E2,3.1508344E2,9.896473E1,7.800051E1,8.604709E1,6.422525E1,5.5167908E1,9.733757E0,1.7988342E2,2.843941E2,3.068932E1,2.190633E1,7.7058395E1,3.059441E1,4.7406097E1,3.220665E1,5.384044E1,4.0895523E1,2.332973E1,1.7318813E2,6.695294E0,2.4351846E2,4.087565E1,1.4176678E1,1.6512642E1,1.5014319E1,6.8920107E0,4.6270664E1,3.0787733E1,2.2027645E1,8.566765E0,9.123977E0,3.828212E1,2.5469776E1,6.736875E0,4.1973133E1,1.1867304E1,5.945974E0,3.494955E1,5.7585654E0,1.7571165E1,1.0458459E2,6.860354E1],"tree_param":{"num_deleted":"0","num_feature":"27","num_nodes":"49","size_leaf_vector":"1"}},{"base_weights":[4.6661682E-2,2.1014507E-1,-1.9776294E-1,5.637172E-1,1.4311977E-1,2.5875646E-1,-3.3113018E-1,8.447596E-1,1.4853662E-1,-2.4439086E-1,2.0361197E-1,5.9606415E-1,-2.3114843E-2,-2.4525878E-1,-5.393612E-1,-7.090565E-3,9.506305E-1,7.075511E-1,-1.3923462E-1,-3.533558E-1,1.8955766E-1,4.2611185E-2,3.2599807E-1,3.2535025E-1,1.0856746E0,-2.7007896E-1,5.598391E-1,-3.703372E-2,-3.645389E-1,-5.8560073E-2,-2.6008707E-1,1.1924385E-1,6.887715E-2,1.1779974E-1,8.967788E-3,-4.18921E-2,8.254002E-3,-5.426535E-2,-3.0599101E-3,6.03758E-2,-1.63418E-2,-3.8834576E-2,1.2213842E-2,1.7990327E-2,4.9565293E-2,1.4042389E-3,9.226482E-2,6.487458E-2,1.3303556E-1,-3.443944E-2,6.7533194E-3,9.420692E-2,-5.3957473E-3,-1.3340588E-2,4.164809E-2,-3.0798952E-3,-4.237638E-2,-1.8235313E-3,-5.1172316E-2],"categories":[],"categories_nodes":[],"categories_segments":[],"categories_sizes":[],"default_left":[0,0,0,0,0,0,0,0,0,0,0,0,0,0,0,0,0,0,0,0,0,0,0,0,0,0,0,0,0,0,0,0,0,0,0,0,0,0,0,0,0,0,0,0,0,0,0,0,0,0,0,0,0,0,0,0,0,0,0],"id":23,"left_children":[1,3,5,7,9,11,13,15,17,19,21,23,25,27,29,-1,31,33,35,37,39,41,43,45,47,49,51,53,55,-1,57,-1,-1,-1,-1,-1,-1,-1,-1,-1,-1,-1,-1,-1,-1,-1,-1,-1,-1,-1,-1,-1,-1,-1,-1,-1,-1,-1,-1],"loss_changes":[3.5751045E1,1.2620895E1,2.1923489E1,9.80084E0,1.0642912E1,7.7772207E0,4.839031E0,4.9646454E0,5.817954E0,2.9737375E0,7.698885E0,4.578616E0,6.693856E0,4.9211044E0,8.8518906E-1,0E0,2.0502892E0,3.454249E0,1.5422527E0,3.0067353E0,1.9976485E0,5.880515E0,5.4189873E0,4.707894E0,5.075388E-1,8.410895E-1,3.2999158E0,3.2668085E0,2.4814854E0,0E0,7.9471266E-1,0E0,0E0,0E0,0E0,0E0,0E0,0E0,0E0,0E0,0E0,0E0,0E0,0E0,0E0,0E0,0E0,0E0,0E0,0E0,0E0,0E0,0E0,0E0,0E0,0E0,0E0,0E0,0E0],"parents":[2147483647,0,0,1,1,2,2,3,3,4,4,5,5,6,6,7,7,8,8,9,9,10,10,11,11,12,12,13,13,14,14,16,16,17,17,18,18,19,19,20,20,21,21,22,22,23,23,24,24,25,25,26,26,27,27,28,28,30,30],"right_children":[2,4,6,8,10,12,14,16,18,20,22,24,26,28,30,-1,32,34,36,38,40,42,44,46,48,50,52,54,56,-1,58,-1,-1,-1,-1,-1,-1,-1,-1,-1,-1,-1,-1,-1,-1,-1,-1,-1,-1,-1,-1,-1,-1,-1,-1,-1,-1,-1,-1],"split_conditions":[-2.0630947E-1,-9.150541E-1,-9.862802E-1,1.11711375E-1,-1.2521796E0,-1.4556293E-1,7.853624E-1,-9.271333E-1,-1.0747137E0,9.9691194E-1,-1.047198E-1,9.4907564E-1,-3.1431672E-1,6.151141E-1,9.5328015E-1,-7.090565E-3,-5.1268256E-1,-9.944223E-1,2.845798E-1,-1.7078638E-1,1.608097E0,-7.823857E-1,-3.819548E-2,8.7504643E-1,-6.92757E-1,1.157134E-1,2.771328E-1,8.0294144E-1,-1.3674392E0,-5.8560073E-2,4.9758643E-1,1.1924385E-1,6.887715E-2,1.1779974E-1,8.967788E-3,-4.18921E-2,8.254002E-3,-5.426535E-2,-3.0599101E-3,6.03758E-2,-1.63418E-2,-3.8834576E-2,1.2213842E-2,1.7990327E-2,4.9565293E-2,1.4042389E-3,9.226482E-2,6.487458E-2,1.3303556E-1,-3.443944E-2,6.7533194E-3,9.420692E-2,-5.3957473E-3,-1.3340588E-2,4.164809E-2,-3.0798952E-3,-4.237638E-2,-1.8235313E-3,-5.1172316E-2],"split_indices":[2,24,24,16,0,6,6,2,18,14,20,14,18,2,17,0,16,17,7,10,14,7,6,20,13,17,12,20,14,0,4,0,0,0,0,0,0,0,0,0,0,0,0,0,0,0,0,0,0,0,0,0,0,0,0,0,0,0,0],"split_type":[0,0,0,0,0,0,0,0,0,0,0,0,0,0,0,0,0,0,0,0,0,0,0,0,0,0,0,0,0,0,0,0,0,0,0,0,0,0,0,0,0,0,0,0,0,0,0,0,0,0,0,0,0,0,0,0,0,0,0],"sum_hessian":[8.92645E2,5.349704E2,3.5767465E2,8.407056E1,4.508998E2,8.065396E1,2.770207E2,4.951701E1,3.4553543E1,6.0472885E1,3.9042694E2,3.6208984E1,4.4444973E1,1.9767871E2,7.934197E1,5.1661186E0,4.435089E1,1.1246926E1,2.3306618E1,4.8484177E1,1.198871E1,1.6919563E2,2.2123131E2,2.4388617E1,1.1820368E1,3.159619E1,1.2848785E1,7.2473526E1,1.2520519E2,6.71303E1,1.2211669E1,2.121064E1,2.3140251E1,5.870565E0,5.3763614E0,9.914371E0,1.3392247E1,3.0130972E1,1.8353205E1,5.189084E0,6.7996264E0,2.5753674E1,1.4344196E2,1.1997646E2,1.01254845E2,1.6705387E1,7.6832304E0,5.5539765E0,6.2663913E0,2.5879488E1,5.7167015E0,7.588419E0,5.260366E0,6.0354084E1,1.2119442E1,1.909913E1,1.0610606E2,6.77376E0,5.437909E0],"tree_param":{"num_deleted":"0","num_feature":"27","num_nodes":"59","size_leaf_vector":"1"}},{"base_weights":[-2.6210617E-2,-2.401602E-1,7.083329E-1,-4.181315E-1,1.8655904E-1,-1.1855962E-1,9.7507846E-1,-1.1401196E-1,-4.583682E-1,-8.003619E-2,5.252767E-1,6.852114E-2,-3.005644E-1,6.18229E-1,1.1560942E0,-2.1427368E-1,6.934884E-2,-2.7499574E-1,-4.9769327E-1,-2.0087509E-1,7.215587E-1,1.1973156E0,3.3728373E-1,-4.4416103E-1,1.2876706E-2,-5.5296994E-3,9.560408E-1,7.279401E-2,1.195359E0,-4.709179E-2,5.506404E-3,-3.980037E-2,3.783063E-2,-5.1470876E-2,-2.4416564E-2,-4.431983E-2,-3.7711908E-3,1.06882825E-1,1.5997166E-2,1.5157227E-1,3.5257947E-2,9.3857564E-2,7.1567665E-3,-3.6446077E-3,-5.2442264E-2,7.181265E-2,-3.2532554E-2,1.11346856E-1,2.2328997E-2,1.228838E-1,7.669245E-2],"categories":[],"categories_nodes":[],"categories_segments":[],"categories_sizes":[],"default_left":[0,0,0,0,0,0,0,0,0,0,0,0,0,0,0,0,0,0,0,0,0,0,0,0,0,0,0,0,0,0,0,0,0,0,0,0,0,0,0,0,0,0,0,0,0,0,0,0,0,0,0],"id":24,"left_children":[1,3,5,7,9,11,13,15,17,19,21,-1,23,25,27,29,-1,31,33,35,37,39,41,43,-1,45,47,-1,49,-1,-1,-1,-1,-1,-1,-1,-1,-1,-1,-1,-1,-1,-1,-1,-1,-1,-1,-1,-1,-1,-1],"loss_changes":[1.3674983E2,5.124789E1,4.3410965E1,5.7698364E0,1.8011747E1,7.3401814E0,8.879028E0,4.7573237E0,2.8908157E0,1.1015245E1,1.0685713E1,0E0,2.5514975E0,1.0990467E1,7.670746E-1,3.5790155E0,0E0,6.2882657E0,1.360405E0,3.8700356E0,2.7385364E0,4.5208054E0,1.1114006E1,9.8037386E-1,0E0,4.702239E0,3.6531525E0,0E0,3.147812E-1,0E0,0E0,0E0,0E0,0E0,0E0,0E0,0E0,0E0,0E0,0E0,0E0,0E0,0E0,0E0,0E0,0E0,0E0,0E0,0E0,0E0,0E0],"parents":[2147483647,0,0,1,1,2,2,3,3,4,4,5,5,6,6,7,7,8,8,9,9,10,10,12,12,13,13,14,14,15,15,17,17,18,18,19,19,20,20,21,21,22,22,23,23,25,25,26,26,28,28],"right_children":[2,4,6,8,10,12,14,16,18,20,22,-1,24,26,28,30,-1,32,34,36,38,40,42,44,-1,46,48,-1,50,-1,-1,-1,-1,-1,-1,-1,-1,-1,-1,-1,-1,-1,-1,-1,-1,-1,-1,-1,-1,-1,-1],"split_conditions":[7.316112E-1,5.550046E-1,-3.1328297E-1,-7.60848E-1,6.3390946E-1,-1.7771294E0,1.3950909E0,9.9254596E-1,-6.043828E-1,5.3819335E-1,-4.5965266E-1,6.852114E-2,3.4162116E-1,4.6213952E-1,-7.6867443E-1,-1.4742565E-1,6.934884E-2,2.9108936E-1,1.144401E0,-4.716196E-1,-3.6628422E-1,5.359528E-1,-7.60848E-1,-1.2293575E0,1.2876706E-2,9.0886575E-1,4.8463637E-1,7.279401E-2,4.402108E-1,-4.709179E-2,5.506404E-3,-3.980037E-2,3.783063E-2,-5.1470876E-2,-2.4416564E-2,-4.431983E-2,-3.7711908E-3,1.06882825E-1,1.5997166E-2,1.5157227E-1,3.5257947E-2,9.3857564E-2,7.1567665E-3,-3.6446077E-3,-5.2442264E-2,7.181265E-2,-3.2532554E-2,1.11346856E-1,2.2328997E-2,1.228838E-1,7.669245E-2],"split_indices":[9,4,24,14,18,6,9,18,6,16,6,0,18,18,20,16,0,11,18,16,14,5,14,7,0,2,6,0,14,0,0,0,0,0,0,0,0,0,0,0,0,0,0,0,0,0,0,0,0,0,0],"split_type":[0,0,0,0,0,0,0,0,0,0,0,0,0,0,0,0,0,0,0,0,0,0,0,0,0,0,0,0,0,0,0,0,0,0,0,0,0,0,0,0,0,0,0,0,0,0,0,0,0,0,0],"sum_hessian":[8.680749E2,6.727863E2,1.9528859E2,4.7478738E2,1.9799892E2,4.7767677E1,1.4752092E2,5.5925014E1,4.188624E2,1.112225E2,8.677641E1,8.308928E0,3.945875E1,5.1133358E1,9.638756E1,5.0401638E1,5.523376E0,7.537627E1,3.434861E2,9.730358E1,1.3918921E1,1.7794731E1,6.898168E1,2.954307E1,9.915682E0,1.8309355E1,3.2824005E1,9.738239E0,8.6649315E1,2.5425745E1,2.4975893E1,6.3761597E1,1.1614666E1,3.2091757E2,2.2568539E1,3.8463253E1,5.884033E1,8.042462E0,5.876459E0,1.2346601E1,5.44813E0,2.0365074E1,4.8616608E1,5.098365E0,2.4444704E1,5.229684E0,1.3079671E1,2.6591406E1,6.232599E0,7.863626E1,8.013052E0],"tree_param":{"num_deleted":"0","num_feature":"27","num_nodes":"51","size_leaf_vector":"1"}},{"base_weights":[-9.859847E-2,7.502282E-2,-1.9232427E-1,2.1167235E-1,-4.279596E-1,-2.8511187E-1,-4.826766E-2,1.6032415E-2,3.52531E-1,1.6135767E-2,-5.262423E-1,-3.4161448E-1,-8.79168E-2,-1.3518453E-1,6.2222475E-1,-3.2145238E-1,1.7668505E-1,6.696801E-1,1.05686836E-1,-2.7633602E-2,-5.565482E-1,-3.7112758E-1,-4.1297235E-2,-2.160994E-1,4.5077828E-1,7.106284E-2,-2.607299E-1,7.9347116E-1,-2.674471E-3,-5.372411E-2,-1.7902984E-3,-4.087439E-2,2.517641E-2,8.424958E-2,1.8121824E-2,-5.5042E-3,6.509123E-2,-5.7607055E-2,-3.3602092E-2,-3.8725898E-2,2.1093434E-2,-3.960772E-2,3.233747E-2,1.1969429E-2,-3.035376E-2,9.346273E-2,-1.3520338E-2,-2.0642197E-3,9.937319E-2,1.2131055E-2,-3.915573E-2,2.5912596E-2,1.3244624E-1],"categories":[],"categories_nodes":[],"categories_segments":[],"categories_sizes":[],"default_left":[0,0,0,0,0,0,0,0,0,0,0,0,0,0,0,0,0,0,0,0,0,0,0,0,0,0,0,0,0,0,0,0,0,0,0,0,0,0,0,0,0,0,0,0,0,0,0,0,0,0,0,0,0],"id":25,"left_children":[1,3,5,7,9,11,13,15,17,-1,19,21,23,25,27,29,31,33,35,-1,37,39,41,43,45,47,49,51,-1,-1,-1,-1,-1,-1,-1,-1,-1,-1,-1,-1,-1,-1,-1,-1,-1,-1,-1,-1,-1,-1,-1,-1,-1],"loss_changes":[1.3393916E1,1.995174E1,7.1271935E0,6.274699E0,3.6796732E0,3.588192E0,1.2351416E1,5.285917E0,1.0298479E1,0E0,2.5084782E-1,2.2188072E0,5.184467E0,4.864869E0,2.7255993E0,2.0510476E0,3.0032713E0,4.725054E0,6.6669893E0,0E0,7.323265E-3,2.2354965E0,3.1917548E0,1.8034682E0,4.2331057E0,6.0793624E0,5.873266E0,5.128996E0,0E0,0E0,0E0,0E0,0E0,0E0,0E0,0E0,0E0,0E0,0E0,0E0,0E0,0E0,0E0,0E0,0E0,0E0,0E0,0E0,0E0,0E0,0E0,0E0,0E0],"parents":[2147483647,0,0,1,1,2,2,3,3,4,4,5,5,6,6,7,7,8,8,10,10,11,11,12,12,13,13,14,14,15,15,16,16,17,17,18,18,20,20,21,21,22,22,23,23,24,24,25,25,26,26,27,27],"right_children":[2,4,6,8,10,12,14,16,18,-1,20,22,24,26,28,30,32,34,36,-1,38,40,42,44,46,48,50,52,-1,-1,-1,-1,-1,-1,-1,-1,-1,-1,-1,-1,-1,-1,-1,-1,-1,-1,-1,-1,-1,-1,-1,-1,-1],"split_conditions":[-5.1246065E-1,7.853624E-1,2.0019965E-1,-2.0130682E-1,-1.0304083E0,8.838708E-1,5.7678694E-1,2.1529546E-2,-2.7714562E-1,1.6135767E-2,-4.9486798E-1,2.1416612E0,-3.4867528E-1,-4.2943335E-1,5.4123014E-1,-8.7188885E-2,-2.133503E0,-2.3248748E-1,2.336629E-1,-2.7633602E-2,3.107172E-1,1.9159681E0,-5.4876924E-1,-5.181001E-1,-7.64444E-1,-2.6247463E-1,-3.233589E-1,-1.5197495E-2,-2.674471E-3,-5.372411E-2,-1.7902984E-3,-4.087439E-2,2.517641E-2,8.424958E-2,1.8121824E-2,-5.5042E-3,6.509123E-2,-5.7607055E-2,-3.3602092E-2,-3.8725898E-2,2.1093434E-2,-3.960772E-2,3.233747E-2,1.1969429E-2,-3.035376E-2,9.346273E-2,-1.3520338E-2,-2.0642197E-3,9.937319E-2,1.2131055E-2,-3.915573E-2,2.5912596E-2,1.3244624E-1],"split_indices":[18,6,14,14,1,17,17,17,10,0,9,2,14,24,10,5,14,24,17,0,4,3,14,6,9,4,7,11,0,0,0,0,0,0,0,0,0,0,0,0,0,0,0,0,0,0,0,0,0,0,0,0,0],"split_type":[0,0,0,0,0,0,0,0,0,0,0,0,0,0,0,0,0,0,0,0,0,0,0,0,0,0,0,0,0,0,0,0,0,0,0,0,0,0,0,0,0,0,0,0,0,0,0,0,0,0,0,0,0],"sum_hessian":[8.2119977E2,2.8796384E2,5.332359E2,2.2689934E2,6.106452E1,3.237364E2,2.0949951E2,9.5446526E1,1.314528E2,8.636581E0,5.242794E1,2.5106578E2,7.267061E1,1.8616505E2,2.3334454E1,3.0459335E1,6.498718E1,5.6783512E1,7.46693E1,6.764568E0,4.5663372E1,2.2838582E2,2.2679964E1,5.9186108E1,1.3484499E1,7.060626E1,1.1555879E2,1.8286463E1,5.047992E0,1.7353285E1,1.3106052E1,6.88184E0,5.8105347E1,4.1408558E1,1.5374954E1,5.8363247E1,1.630605E1,4.0468605E1,5.194765E0,2.2255263E2,5.8331947E0,1.1452248E1,1.1227716E1,1.2151426E1,4.7034683E1,7.0600176E0,6.4244814E0,6.511231E1,5.4939523E0,2.9496426E1,8.606236E1,9.856105E0,8.430357E0],"tree_param":{"num_deleted":"0","num_feature":"27","num_nodes":"53","size_leaf_vector":"1"}},{"base_weights":[-5.6650105E-4,-3.5983434E-1,5.914327E-1,-5.2894557E-1,-1.2228358E-1,-1.6362357E-1,9.030542E-1,-3.4919465E-1,-5.492634E-1,-4.3934906E-1,4.7106966E-1,-4.5911038E-1,3.2044593E-2,9.391939E-1,5.734076E-3,-4.6716094E-1,1.1070759E-2,-4.2212495E-1,-5.668266E-1,-5.331342E-1,-1.9447935E-1,7.478296E-1,-3.9291388E-1,4.007349E-3,-5.544513E-2,4.1092047E-1,-2.2443469E-1,5.374858E-1,1.0186707E0,-2.1141684E-2,-5.674495E-2,-5.1526822E-2,8.7722745E-3,-5.7369053E-2,-3.1247238E-2,-2.9773628E-2,-5.673523E-2,-4.9251523E-2,1.5305388E-2,-2.4481893E-2,9.079879E-2,-5.7644516E-2,6.457114E-4,7.721826E-2,-1.0880231E-2,1.7223144E-2,-4.4412967E-2,9.212231E-2,-1.9503629E-2,1.0465632E-1,4.5796543E-2],"categories":[],"categories_nodes":[],"categories_segments":[],"categories_sizes":[],"default_left":[0,0,0,0,0,0,0,0,0,0,0,0,0,0,0,0,0,0,0,0,0,0,0,0,0,0,0,0,0,0,0,0,0,0,0,0,0,0,0,0,0,0,0,0,0,0,0,0,0,0,0],"id":26,"left_children":[1,3,5,7,9,11,13,15,17,19,21,23,25,27,-1,29,-1,31,33,35,37,39,41,-1,-1,43,45,47,49,-1,-1,-1,-1,-1,-1,-1,-1,-1,-1,-1,-1,-1,-1,-1,-1,-1,-1,-1,-1,-1,-1],"loss_changes":[1.8332263E2,2.1484138E1,7.674264E1,9.5147705E-1,4.241748E1,5.562176E0,6.993637E0,1.9253964E0,3.8484192E-1,3.266348E0,1.909344E1,1.8445139E0,5.7923126E0,6.5104065E0,0E0,5.899067E-1,0E0,1.8422747E0,2.4440002E-1,6.8112755E-1,4.4477053E0,9.743832E0,1.4498851E0,0E0,0E0,4.596265E0,3.1811564E0,1.1038596E1,2.3895874E0,0E0,0E0,0E0,0E0,0E0,0E0,0E0,0E0,0E0,0E0,0E0,0E0,0E0,0E0,0E0,0E0,0E0,0E0,0E0,0E0,0E0,0E0],"parents":[2147483647,0,0,1,1,2,2,3,3,4,4,5,5,6,6,7,7,8,8,9,9,10,10,11,11,12,12,13,13,15,15,17,17,18,18,19,19,20,20,21,21,22,22,25,25,26,26,27,27,28,28],"right_children":[2,4,6,8,10,12,14,16,18,20,22,24,26,28,-1,30,-1,32,34,36,38,40,42,-1,-1,44,46,48,50,-1,-1,-1,-1,-1,-1,-1,-1,-1,-1,-1,-1,-1,-1,-1,-1,-1,-1,-1,-1,-1,-1],"split_conditions":[6.112843E-1,4.8414294E-2,-6.272916E-1,-1.0837531E0,-2.1137764E-1,-6.8722045E-1,8.986968E-1,4.659698E-1,-1.0198745E0,-6.7817074E-1,1.991899E-1,-1.0651301E0,-1.0840102E0,-2.0630947E-1,5.734076E-3,-6.872597E-1,1.1070759E-2,1.03443265E-1,-6.1752073E-2,-9.387309E-1,2.6746985E-1,-7.3364156E-1,9.0583754E-1,4.007349E-3,-5.544513E-2,7.6353693E-1,3.914084E-1,-1.0302641E0,1.0450206E0,-2.1141684E-2,-5.674495E-2,-5.1526822E-2,8.7722745E-3,-5.7369053E-2,-3.1247238E-2,-2.9773628E-2,-5.673523E-2,-4.9251523E-2,1.5305388E-2,-2.4481893E-2,9.079879E-2,-5.7644516E-2,6.457114E-4,7.721826E-2,-1.0880231E-2,1.7223144E-2,-4.4412967E-2,9.212231E-2,-1.9503629E-2,1.0465632E-1,4.5796543E-2],"split_indices":[6,2,2,8,6,21,9,12,17,6,4,11,16,2,0,1,0,11,2,12,21,21,0,0,0,17,17,16,24,0,0,0,0,0,0,0,0,0,0,0,0,0,0,0,0,0,0,0,0,0,0],"split_type":[0,0,0,0,0,0,0,0,0,0,0,0,0,0,0,0,0,0,0,0,0,0,0,0,0,0,0,0,0,0,0,0,0,0,0,0,0,0,0,0,0,0,0,0,0,0,0,0,0,0,0],"sum_hessian":[8.5993866E2,5.354071E2,3.2453152E2,3.120404E2,2.2336671E2,9.4948074E1,2.2958345E2,3.3535965E1,2.7850443E2,1.4574544E2,7.7621284E1,3.7289394E1,5.7658676E1,2.2006876E2,9.514692E0,2.6677359E1,6.8586054E0,3.6842007E1,2.4166243E2,1.0453231E2,4.1213123E1,5.889113E1,1.8730162E1,6.0728707E0,3.1216524E1,2.3032495E1,3.4626183E1,3.763067E1,1.8243808E2,8.39007E0,1.8287289E1,3.1142078E1,5.6999283E0,2.3408983E2,7.5726004E0,1.4497819E1,9.003449E1,2.1961937E1,1.9251186E1,8.108244E0,5.0782883E1,1.2529046E1,6.201115E0,1.3301083E1,9.731414E0,1.2419117E1,2.2207064E1,2.4525301E1,1.310537E1,1.7296725E2,9.470833E0],"tree_param":{"num_deleted":"0","num_feature":"27","num_nodes":"51","size_leaf_vector":"1"}},{"base_weights":[4.648518E-2,2.839924E-1,-4.0679833E-1,3.4983236E-1,-1.7881207E-1,-2.3470645E-1,-5.250496E-1,-1.123237E-1,3.919632E-1,-3.1558213E-1,3.6549598E-1,1.4764984E-1,-5.499119E-1,-1.7903244E-2,-5.4385865E-1,1.0232179E-1,-3.6750248E-1,4.3132794E-1,-5.76912E-2,-3.884329E-1,2.6735727E-2,8.7694205E-2,-4.620246E-3,-3.6158141E-1,3.004411E-1,-4.0519074E-1,-5.7670143E-2,-5.592822E-2,-2.6433218E-2,-5.345006E-2,3.225794E-2,-5.930307E-2,-5.474932E-3,4.8389852E-2,7.1244226E-3,4.633972E-2,-2.3580898E-2,-1.5740537E-3,-4.7102362E-2,-1.6431619E-3,-5.551928E-2,5.1128507E-2,-1.7232373E-2,-1.8040411E-2,-5.2046437E-2],"categories":[],"categories_nodes":[],"categories_segments":[],"categories_sizes":[],"default_left":[0,0,0,0,0,0,0,0,0,0,0,0,0,0,0,0,0,0,0,0,0,0,0,0,0,0,0,0,0,0,0,0,0,0,0,0,0,0,0,0,0,0,0,0,0],"id":27,"left_children":[1,3,5,7,9,11,13,15,17,19,21,23,25,-1,27,29,31,33,35,37,-1,-1,-1,39,41,43,-1,-1,-1,-1,-1,-1,-1,-1,-1,-1,-1,-1,-1,-1,-1,-1,-1,-1,-1],"loss_changes":[9.706534E1,1.808622E1,6.185951E0,1.0133362E1,5.648863E0,1.551733E1,1.093338E0,2.4513464E0,8.4344635E0,2.6493716E0,3.2810416E0,4.6729636E0,3.932953E-2,0E0,5.9814835E-1,3.639381E0,1.4029758E0,8.2374115E0,3.7408123E0,1.645194E0,0E0,0E0,0E0,9.2595196E-1,4.640474E0,2.78234E-1,0E0,0E0,0E0,0E0,0E0,0E0,0E0,0E0,0E0,0E0,0E0,0E0,0E0,0E0,0E0,0E0,0E0,0E0,0E0],"parents":[2147483647,0,0,1,1,2,2,3,3,4,4,5,5,6,6,7,7,8,8,9,9,10,10,11,11,12,12,14,14,15,15,16,16,17,17,18,18,19,19,23,23,24,24,25,25],"right_children":[2,4,6,8,10,12,14,16,18,20,22,24,26,-1,28,30,32,34,36,38,-1,-1,-1,40,42,44,-1,-1,-1,-1,-1,-1,-1,-1,-1,-1,-1,-1,-1,-1,-1,-1,-1,-1,-1],"split_conditions":[-1.704728E-1,1.0537847E0,5.051611E-1,-1.165578E0,8.532174E-1,2.3338743E-1,-1.6570599E0,-5.162522E-1,1.4208491E0,1.6809698E0,-3.7333816E-2,-8.390637E-1,-7.6867443E-1,-1.7903244E-2,1.5290693E0,-3.8530377E-1,-2.5236052E-3,9.812701E-1,-2.12727E-1,-2.2663958E-1,2.6735727E-2,8.7694205E-2,-4.620246E-3,-1.3910776E0,1.9261637E-1,-6.859182E-1,-5.7670143E-2,-5.592822E-2,-2.6433218E-2,-5.345006E-2,3.225794E-2,-5.930307E-2,-5.474932E-3,4.8389852E-2,7.1244226E-3,4.633972E-2,-2.3580898E-2,-1.5740537E-3,-4.7102362E-2,-1.6431619E-3,-5.551928E-2,5.1128507E-2,-1.7232373E-2,-1.8040411E-2,-5.2046437E-2],"split_indices":[22,6,22,4,4,6,19,13,18,18,10,8,20,0,21,0,6,21,17,14,0,0,0,24,17,0,0,0,0,0,0,0,0,0,0,0,0,0,0,0,0,0,0,0,0],"split_type":[0,0,0,0,0,0,0,0,0,0,0,0,0,0,0,0,0,0,0,0,0,0,0,0,0,0,0,0,0,0,0,0,0,0,0,0,0,0,0,0,0,0,0,0,0],"sum_hessian":[8.995342E2,5.9050195E2,3.090322E2,5.171717E2,7.333026E1,1.2707861E2,1.8195358E2,4.306814E1,4.7410358E2,5.8940342E1,1.4389917E1,5.766289E1,6.941572E1,9.923127E0,1.7203046E2,2.3717234E1,1.9350904E1,4.3597696E2,3.81266E1,5.2689346E1,6.2509975E0,5.9135523E0,8.476365E0,1.2992904E1,4.466999E1,1.3361234E1,5.605448E1,1.6208615E2,9.944306E0,5.7283545E0,1.7988878E1,1.0722607E1,8.628299E0,3.8013513E2,5.5841824E1,9.304473E0,2.8822124E1,9.774099E0,4.2915245E1,5.059044E0,7.93386E0,3.0836172E1,1.38338175E1,5.3986773E0,7.962556E0],"tree_param":{"num_deleted":"0","num_feature":"27","num_nodes":"45","size_leaf_vector":"1"}},{"base_weights":[4.5759544E-2,4.2869493E-1,-4.2911693E-2,1.0966573E0,3.5668224E-1,1.08267024E-1,-2.9480046E-1,1.3479531E-1,7.04528E-2,2.0277765E-1,7.080041E-1,-8.6605966E-2,1.9143586E-1,-3.508563E-1,5.501451E-2,-2.287643E-1,3.0265933E-1,2.2121583E-1,9.502911E-1,9.15606E-2,-2.1932663E-1,9.611253E-2,3.8936257E-1,-3.035742E-1,-5.7519484E-2,6.534939E-1,-3.648431E-1,4.538259E-2,-5.2428633E-2,1.4015483E-2,5.152554E-2,7.324065E-2,-4.410064E-2,1.6253449E-2,1.1920785E-1,-1.53219765E-2,3.603883E-2,2.8681805E-2,-3.0159002E-2,-7.5759925E-3,2.9197609E-2,6.231203E-3,5.520906E-2,-3.2949354E-2,3.3855774E-3,1.1075621E-1,2.5423188E-2,-5.070244E-2,-4.5895292E-3],"categories":[],"categories_nodes":[],"categories_segments":[],"categories_sizes":[],"default_left":[0,0,0,0,0,0,0,0,0,0,0,0,0,0,0,0,0,0,0,0,0,0,0,0,0,0,0,0,0,0,0,0,0,0,0,0,0,0,0,0,0,0,0,0,0,0,0,0,0],"id":28,"left_children":[1,3,5,7,9,11,13,-1,-1,15,17,19,21,23,25,27,29,31,33,35,37,39,41,43,-1,45,47,-1,-1,-1,-1,-1,-1,-1,-1,-1,-1,-1,-1,-1,-1,-1,-1,-1,-1,-1,-1,-1,-1],"loss_changes":[3.0283226E1,7.674305E0,2.7626268E1,6.1079025E-1,8.120462E0,7.367892E0,5.354151E0,0E0,0E0,4.7106714E0,5.2336884E0,3.2446098E0,5.9663334E0,2.3140411E0,9.897269E0,4.4354324E0,2.963623E0,5.956834E0,5.6184006E0,3.9324265E0,3.352678E0,7.2969403E0,5.453162E0,1.724453E0,0E0,2.65656E0,1.030288E0,0E0,0E0,0E0,0E0,0E0,0E0,0E0,0E0,0E0,0E0,0E0,0E0,0E0,0E0,0E0,0E0,0E0,0E0,0E0,0E0,0E0,0E0],"parents":[2147483647,0,0,1,1,2,2,3,3,4,4,5,5,6,6,9,9,10,10,11,11,12,12,13,13,14,14,15,15,16,16,17,17,18,18,19,19,20,20,21,21,22,22,23,23,25,25,26,26],"right_children":[2,4,6,8,10,12,14,-1,-1,16,18,20,22,24,26,28,30,32,34,36,38,40,42,44,-1,46,48,-1,-1,-1,-1,-1,-1,-1,-1,-1,-1,-1,-1,-1,-1,-1,-1,-1,-1,-1,-1,-1,-1],"split_conditions":[-9.3060344E-1,-2.4823136E0,-2.1961151E-1,1.2803006E-1,2.1529546E-2,-2.2346117E-1,9.279956E-1,1.3479531E-1,7.04528E-2,-8.8040686E-1,-2.595709E-1,1.6970787E-3,4.1038492E-1,9.8889375E-1,3.1922227E-1,-5.4650813E-1,7.718509E-1,2.0953026E-1,-9.5650136E-1,-3.6053786E-1,-9.0973085E-1,-1.0640216E-1,-8.980524E-1,1.494569E0,-5.7519484E-2,-4.3438494E-1,1.1105307E0,4.538259E-2,-5.2428633E-2,1.4015483E-2,5.152554E-2,7.324065E-2,-4.410064E-2,1.6253449E-2,1.1920785E-1,-1.53219765E-2,3.603883E-2,2.8681805E-2,-3.0159002E-2,-7.5759925E-3,2.9197609E-2,6.231203E-3,5.520906E-2,-3.2949354E-2,3.3855774E-3,1.1075621E-1,2.5423188E-2,-5.070244E-2,-4.5895292E-3],"split_indices":[24,24,2,9,17,7,17,0,0,7,26,4,14,24,24,10,14,10,18,4,10,13,0,21,0,4,9,0,0,0,0,0,0,0,0,0,0,0,0,0,0,0,0,0,0,0,0,0,0],"split_type":[0,0,0,0,0,0,0,0,0,0,0,0,0,0,0,0,0,0,0,0,0,0,0,0,0,0,0,0,0,0,0,0,0,0,0,0,0,0,0,0,0,0,0,0,0,0,0,0,0],"sum_hessian":[8.9031244E2,1.6667511E2,7.236373E2,1.4835739E1,1.5183937E2,4.5257864E2,2.710587E2,7.5559745E0,7.279764E0,1.0668204E2,4.515733E1,1.3536453E2,3.172141E2,2.336195E2,3.743918E1,1.9808489E1,8.687355E1,1.5642466E1,2.9514862E1,5.792078E1,7.7443756E1,2.1510374E2,1.0211037E2,1.9489598E2,3.8723534E1,1.5206643E1,2.2232534E1,5.8229938E0,1.3985496E1,5.017781E1,3.669574E1,8.768102E0,6.874364E0,7.324256E0,2.2190605E1,3.0541418E1,2.7379362E1,1.0479516E1,6.696424E1,1.1489516E2,1.0020858E2,3.4385456E1,6.772491E1,1.8101501E2,1.3880966E1,6.284947E0,8.921697E0,1.4969649E1,7.2628846E0],"tree_param":{"num_deleted":"0","num_feature":"27","num_nodes":"49","size_leaf_vector":"1"}},